svm_type c_svc
kernel_type rbf
gamma 0.00769231
nr_class 9
total_sv 686
rho -0.375015 0.192595 -0.0659249 -0.265197 -0.105905 -0.212205 -0.180307 -0.137375 0.281925 0.200079 -0.017802 0.104404 0.0209466 -0.00105969 0.0396282 -0.198905 -0.397844 -0.380425 -0.257772 -0.302791 -0.322122 -0.137785 0.00401004 -0.0304021 -0.148728 -0.0580055 0.32944 -0.0462954 0.0799765 -0.045427 -0.0835434 -0.170554 -0.15395 -0.0713977 -0.0891196 0.0106932
label 5 1 0 9 8 6 3 4 2
probA -5.46894 -5.95872 -5.54506 -5.31666 -5.53715 -5.80267 -5.31822 -5.77669 -6.39151 -5.72832 -5.45424 -5.96607 -5.59017 -5.48613 -5.78703 -6.06445 -5.58202 -6.01518 -6.2576 -5.76301 -6.16633 -5.32518 -5.78876 -5.81312 -5.3068 -5.72544 -5.27187 -5.48734 -5.01246 -5.50305 -5.77329 -5.2479 -5.85414 -5.46725 -5.79943 -5.46433
probB 0.0108544 0.289461 -0.266905 -0.366467 0.0488417 -0.0936682 -0.420905 -0.132084 0.053894 -0.412228 -0.520381 -0.228466 -0.165946 -0.595213 -0.313234 -0.44012 -0.599861 -0.321016 -0.35578 -0.86473 -0.382367 -0.302462 0.0397548 0.104358 -0.355328 -0.108317 0.315988 0.517902 -0.0882455 0.403844 0.101723 -0.442011 0.0225178 -0.513245 0.0345684 0.477028
nr_sv 110 73 106 71 73 68 81 47 57
SV
0.6094156777771099 0 0 0 0 0 0 0 1:0 2:1 3:1 4:1 5:1 6:0 7:0 8:0 9:0 10:0 11:1 12:1 13:1 14:1 15:1 16:1 17:0 18:0 19:0 20:0 21:1 22:1 23:1 24:1 25:1 26:0 27:0 28:0 29:0 30:0 31:1 32:1 33:1 34:0 35:0 36:0 37:0 38:0 39:0 40:1 41:1 42:1 43:1 44:1 45:0 46:0 47:0 48:0 49:0 50:1 51:1 52:1 53:1 54:1 55:1 56:1 57:0 58:0 59:0 60:0 61:1 62:1 63:1 64:1 65:1 66:1 67:0 68:0 69:0 70:0 71:0 72:0 73:0 74:1 75:1 76:1 77:0 78:0 79:0 80:0 81:0 82:0 83:0 84:0 85:1 86:1 87:0 88:0 89:0 90:0 91:0 92:0 93:0 94:0 95:1 96:1 97:0 98:0 99:0 100:0 101:0 102:0 103:1 104:1 105:1 106:1 107:0 108:0 109:0 110:0 111:1 112:1 113:1 114:1 115:1 116:1 117:0 118:0 119:0 120:0 121:1 122:1 123:1 124:1 125:0 126:0 127:0 128:0 129:0 130:0 
0 0 0 0 0 1 0 0 1:1 2:1 3:1 4:1 5:1 6:1 7:0 8:0 9:0 10:0 11:1 12:1 13:1 14:1 15:1 16:1 17:0 18:0 19:0 20:0 21:1 22:1 23:1 24:1 25:1 26:1 27:0 28:0 29:0 30:0 31:1 32:1 33:1 34:1 35:1 36:0 37:0 38:0 39:0 40:0 41:1 42:1 43:1 44:1 45:1 46:1 47:0 48:0 49:0 50:1 51:1 52:1 53:1 54:1 55:1 56:1 57:1 58:0 59:0 60:0 61:1 62:1 63:1 64:1 65:1 66:1 67:1 68:0 69:0 70:0 71:0 72:0 73:0 74:1 75:1 76:1 77:1 78:0 79:0 80:0 81:0 82:0 83:0 84:0 85:1 86:1 87:1 88:0 89:0 90:0 91:0 92:0 93:0 94:1 95:1 96:1 97:1 98:0 99:0 100:0 101:1 102:1 103:1 104:1 105:1 106:1 107:0 108:0 109:0 110:0 111:1 112:1 113:1 114:1 115:1 116:1 117:0 118:0 119:0 120:0 121:1 122:1 123:1 124:1 125:1 126:0 127:0 128:0 129:0 130:0 
0 0 0.2753567983085802 0 0 0 0 0 1:1 2:1 3:1 4:1 5:1 6:1 7:0 8:0 9:0 10:0 11:1 12:1 13:1 14:1 15:1 16:1 17:0 18:0 19:0 20:0 21:1 22:1 23:1 24:1 25:1 26:1 27:0 28:0 29:0 30:1 31:1 32:1 33:1 34:1 35:0 36:0 37:0 38:0 39:0 40:1 41:1 42:1 43:1 44:1 45:1 46:1 47:0 48:0 49:0 50:1 51:1 52:1 53:1 54:1 55:1 56:1 57:1 58:0 59:0 60:0 61:1 62:1 63:1 64:1 65:1 66:1 67:1 68:0 69:0 70:0 71:0 72:0 73:1 74:1 75:1 76:1 77:1 78:0 79:0 80:0 81:0 82:0 83:1 84:1 85:1 86:1 87:1 88:0 89:0 90:0 91:0 92:0 93:1 94:1 95:1 96:1 97:0 98:0 99:0 100:1 101:1 102:1 103:1 104:1 105:1 106:0 107:0 108:0 109:0 110:1 111:1 112:1 113:1 114:1 115:0 116:0 117:0 118:0 119:0 120:0 121:0 122:1 123:1 124:0 125:0 126:0 127:0 128:0 129:0 130:0 
0 0 0 0 0.1066108145575316 0 0 0 1:0 2:0 3:1 4:0 5:0 6:0 7:0 8:0 9:0 10:0 11:1 12:1 13:1 14:1 15:1 16:1 17:1 18:0 19:0 20:0 21:1 22:1 23:1 24:1 25:1 26:1 27:0 28:0 29:0 30:1 31:1 32:1 33:1 34:1 35:1 36:0 37:0 38:0 39:0 40:1 41:1 42:1 43:1 44:1 45:1 46:0 47:0 48:0 49:0 50:1 51:1 52:1 53:1 54:1 55:1 56:1 57:1 58:0 59:0 60:1 61:1 62:1 63:1 64:1 65:1 66:1 67:1 68:0 69:0 70:0 71:1 72:1 73:1 74:1 75:1 76:1 77:1 78:0 79:0 80:0 81:0 82:1 83:1 84:1 85:1 86:1 87:1 88:0 89:0 90:0 91:1 92:1 93:1 94:1 95:1 96:1 97:1 98:0 99:0 100:0 101:1 102:1 103:1 104:1 105:1 106:1 107:0 108:0 109:0 110:1 111:1 112:1 113:1 114:1 115:1 116:0 117:0 118:0 119:0 120:0 121:1 122:1 123:1 124:1 125:0 126:0 127:0 128:0 129:0 130:0 
0 0 0 0.920170070891248 0 0 0 0.6542461884533651 1:1 2:1 3:1 4:1 5:1 6:1 7:0 8:0 9:0 10:1 11:1 12:1 13:1 14:1 15:1 16:1 17:0 18:0 19:0 20:1 21:1 22:1 23:1 24:1 25:1 26:1 27:0 28:0 29:0 30:1 31:1 32:1 33:1 34:1 35:1 36:0 37:0 38:0 39:0 40:1 41:1 42:1 43:1 44:1 45:1 46:1 47:0 48:0 49:0 50:1 51:1 52:1 53:1 54:1 55:1 56:1 57:0 58:0 59:0 60:0 61:1 62:1 63:1 64:1 65:1 66:1 67:1 68:0 69:0 70:0 71:0 72:1 73:1 74:1 75:1 76:1 77:1 78:0 79:0 80:0 81:1 82:1 83:1 84:1 85:1 86:1 87:1 88:0 89:0 90:1 91:1 92:1 93:1 94:1 95:1 96:1 97:0 98:0 99:0 100:1 101:1 102:1 103:1 104:1 105:1 106:0 107:0 108:0 109:0 110:1 111:1 112:1 113:1 114:1 115:0 116:0 117:0 118:0 119:0 120:0 121:1 122:1 123:1 124:0 125:0 126:0 127:0 128:0 129:0 130:0 
0 0 0 0 0 0.3020095159856797 0 0 1:1 2:1 3:1 4:1 5:1 6:1 7:0 8:0 9:0 10:1 11:1 12:1 13:1 14:1 15:1 16:1 17:0 18:0 19:0 20:1 21:1 22:1 23:1 24:1 25:1 26:1 27:0 28:0 29:0 30:1 31:1 32:1 33:1 34:1 35:1 36:0 37:0 38:0 39:0 40:1 41:1 42:1 43:1 44:1 45:1 46:0 47:0 48:0 49:0 50:1 51:1 52:1 53:1 54:1 55:1 56:1 57:0 58:0 59:0 60:1 61:1 62:1 63:1 64:1 65:1 66:1 67:0 68:0 69:0 70:0 71:0 72:0 73:1 74:1 75:1 76:1 77:0 78:0 79:0 80:0 81:0 82:0 83:0 84:1 85:1 86:1 87:1 88:0 89:0 90:0 91:0 92:0 93:0 94:1 95:1 96:1 97:1 98:0 99:0 100:0 101:1 102:1 103:1 104:1 105:1 106:1 107:0 108:0 109:0 110:1 111:1 112:1 113:1 114:1 115:1 116:1 117:0 118:0 119:0 120:1 121:1 122:1 123:1 124:1 125:1 126:0 127:0 128:0 129:0 130:0 
0.2908205098047483 0 0 0 0 0 0 0 1:1 2:1 3:1 4:1 5:1 6:1 7:1 8:0 9:0 10:0 11:1 12:1 13:1 14:1 15:1 16:1 17:1 18:0 19:0 20:0 21:1 22:1 23:1 24:1 25:1 26:1 27:0 28:0 29:0 30:1 31:1 32:1 33:1 34:1 35:1 36:0 37:0 38:0 39:0 40:0 41:1 42:1 43:1 44:1 45:1 46:1 47:0 48:0 49:0 50:0 51:1 52:1 53:1 54:1 55:1 56:1 57:1 58:0 59:0 60:0 61:0 62:0 63:1 64:1 65:1 66:1 67:1 68:0 69:0 70:0 71:0 72:0 73:1 74:1 75:1 76:1 77:1 78:1 79:0 80:0 81:0 82:0 83:1 84:1 85:1 86:1 87:1 88:0 89:0 90:0 91:1 92:1 93:1 94:1 95:1 96:1 97:0 98:0 99:0 100:0 101:1 102:1 103:1 104:1 105:1 106:1 107:0 108:0 109:0 110:0 111:1 112:1 113:1 114:1 115:1 116:0 117:0 118:0 119:0 120:0 121:0 122:0 123:1 124:0 125:0 126:0 127:0 128:0 129:0 130:0 
1 0 0 0 0 0 0 0 1:0 2:0 3:0 4:1 5:0 6:0 7:0 8:0 9:0 10:0 11:1 12:1 13:1 14:1 15:1 16:1 17:0 18:0 19:0 20:1 21:1 22:1 23:1 24:1 25:1 26:0 27:0 28:0 29:0 30:1 31:1 32:1 33:1 34:0 35:0 36:0 37:0 38:0 39:0 40:1 41:1 42:1 43:1 44:1 45:0 46:0 47:0 48:0 49:0 50:1 51:1 52:1 53:1 54:1 55:1 56:0 57:0 58:0 59:0 60:1 61:1 62:1 63:1 64:1 65:1 66:1 67:0 68:0 69:0 70:0 71:0 72:0 73:0 74:1 75:1 76:1 77:0 78:0 79:0 80:0 81:0 82:0 83:0 84:0 85:1 86:1 87:0 88:0 89:0 90:0 91:0 92:0 93:0 94:0 95:1 96:1 97:0 98:0 99:0 100:0 101:0 102:0 103:1 104:1 105:1 106:1 107:0 108:0 109:0 110:0 111:1 112:1 113:1 114:1 115:1 116:1 117:0 118:0 119:0 120:1 121:1 122:1 123:1 124:1 125:1 126:0 127:0 128:0 129:0 130:0 
1 0 0 0 0 0 0 0 1:0 2:1 3:1 4:1 5:1 6:1 7:0 8:0 9:0 10:0 11:1 12:1 13:1 14:1 15:1 16:1 17:1 18:0 19:0 20:0 21:1 22:1 23:1 24:1 25:1 26:1 27:0 28:0 29:0 30:1 31:1 32:1 33:1 34:1 35:1 36:0 37:0 38:0 39:0 40:1 41:1 42:1 43:1 44:1 45:1 46:1 47:0 48:0 49:0 50:0 51:1 52:1 53:1 54:1 55:1 56:1 57:1 58:0 59:0 60:0 61:0 62:1 63:1 64:1 65:1 66:1 67:1 68:0 69:0 70:0 71:0 72:0 73:1 74:1 75:1 76:1 77:1 78:1 79:0 80:0 81:0 82:0 83:1 84:1 85:1 86:1 87:1 88:0 89:0 90:0 91:0 92:0 93:1 94:1 95:1 96:1 97:1 98:0 99:0 100:0 101:1 102:1 103:1 104:1 105:1 106:1 107:0 108:0 109:0 110:0 111:1 112:1 113:1 114:1 115:1 116:0 117:0 118:0 119:0 120:0 121:0 122:1 123:1 124:1 125:0 126:0 127:0 128:0 129:0 130:0 
0 0 1 0 0 0 0 0 1:1 2:1 3:1 4:1 5:1 6:1 7:0 8:0 9:0 10:0 11:1 12:1 13:1 14:1 15:1 16:1 17:1 18:0 19:0 20:0 21:1 22:1 23:1 24:1 25:1 26:1 27:0 28:0 29:0 30:1 31:1 32:1 33:1 34:1 35:1 36:0 37:0 38:0 39:0 40:1 41:1 42:1 43:1 44:1 45:1 46:1 47:1 48:0 49:0 50:1 51:1 52:1 53:1 54:1 55:1 56:1 57:1 58:0 59:0 60:0 61:0 62:1 63:1 64:1 65:1 66:1 67:1 68:0 69:0 70:0 71:0 72:0 73:1 74:1 75:1 76:1 77:1 78:0 79:0 80:0 81:0 82:1 83:1 84:1 85:1 86:1 87:1 88:0 89:0 90:0 91:1 92:1 93:1 94:1 95:1 96:1 97:0 98:0 99:0 100:1 101:1 102:1 103:1 104:1 105:1 106:0 107:0 108:0 109:0 110:0 111:1 112:1 113:1 114:1 115:0 116:0 117:0 118:0 119:0 120:0 121:0 122:0 123:1 124:0 125:0 126:0 127:0 128:0 129:0 130:0 
0 0 0 0.7183773389577911 0 0 0 0 1:0 2:1 3:1 4:1 5:1 6:1 7:0 8:0 9:0 10:0 11:1 12:1 13:1 14:1 15:1 16:1 17:1 18:0 19:0 20:0 21:1 22:1 23:1 24:1 25:1 26:1 27:0 28:0 29:0 30:0 31:1 32:1 33:1 34:1 35:1 36:0 37:0 38:0 39:0 40:0 41:1 42:1 43:1 44:1 45:1 46:1 47:0 48:0 49:0 50:1 51:1 52:1 53:1 54:1 55:1 56:1 57:1 58:0 59:0 60:0 61:1 62:1 63:1 64:1 65:1 66:1 67:1 68:0 69:0 70:0 71:0 72:0 73:0 74:1 75:1 76:1 77:1 78:0 79:0 80:0 81:0 82:0 83:0 84:0 85:1 86:1 87:1 88:0 89:0 90:0 91:0 92:0 93:0 94:1 95:1 96:1 97:1 98:0 99:0 100:0 101:1 102:1 103:1 104:1 105:1 106:1 107:1 108:0 109:0 110:0 111:1 112:1 113:1 114:1 115:1 116:1 117:0 118:0 119:0 120:0 121:1 122:1 123:1 124:1 125:1 126:0 127:0 128:0 129:0 130:0 
0 0.03431027509154316 0 0 0 0 0 0 1:0 2:1 3:1 4:1 5:1 6:1 7:0 8:0 9:0 10:0 11:1 12:1 13:1 14:1 15:1 16:1 17:1 18:0 19:0 20:0 21:1 22:1 23:1 24:1 25:1 26:1 27:1 28:0 29:0 30:1 31:1 32:1 33:1 34:1 35:1 36:1 37:0 38:0 39:0 40:0 41:1 42:1 43:1 44:1 45:1 46:1 47:1 48:0 49:0 50:1 51:1 52:1 53:1 54:1 55:1 56:1 57:1 58:1 59:0 60:0 61:1 62:1 63:1 64:1 65:1 66:1 67:1 68:1 69:0 70:0 71:0 72:0 73:1 74:1 75:1 76:1 77:1 78:1 79:0 80:0 81:0 82:0 83:1 84:1 85:1 86:1 87:1 88:1 89:0 90:0 91:0 92:1 93:1 94:1 95:1 96:1 97:1 98:0 99:0 100:0 101:1 102:1 103:1 104:1 105:1 106:1 107:1 108:0 109:0 110:0 111:1 112:1 113:1 114:1 115:1 116:1 117:0 118:0 119:0 120:0 121:1 122:1 123:1 124:1 125:1 126:0 127:0 128:0 129:0 130:0 
0.1168612591042314 0 0 0 0 0 0 0 1:0 2:0 3:0 4:1 5:1 6:0 7:0 8:0 9:0 10:1 11:1 12:1 13:1 14:1 15:1 16:1 17:0 18:0 19:0 20:1 21:1 22:1 23:1 24:1 25:1 26:0 27:0 28:0 29:0 30:1 31:1 32:1 33:1 34:1 35:0 36:0 37:0 38:0 39:0 40:1 41:1 42:1 43:1 44:1 45:0 46:0 47:0 48:0 49:0 50:1 51:1 52:1 53:1 54:1 55:1 56:0 57:0 58:0 59:0 60:1 61:1 62:1 63:1 64:1 65:1 66:1 67:0 68:0 69:0 70:0 71:0 72:0 73:0 74:1 75:1 76:1 77:0 78:0 79:0 80:0 81:0 82:0 83:0 84:0 85:1 86:1 87:0 88:0 89:0 90:0 91:0 92:0 93:0 94:1 95:1 96:1 97:0 98:0 99:0 100:0 101:0 102:0 103:1 104:1 105:1 106:1 107:0 108:0 109:0 110:1 111:1 112:1 113:1 114:1 115:1 116:1 117:0 118:0 119:0 120:1 121:1 122:1 123:1 124:1 125:0 126:0 127:0 128:0 129:0 130:0 
1 0 0 0 0 0 0 0 1:1 2:1 3:1 4:1 5:1 6:0 7:0 8:0 9:0 10:1 11:1 12:1 13:1 14:1 15:1 16:0 17:0 18:0 19:0 20:1 21:1 22:1 23:1 24:1 25:1 26:0 27:0 28:0 29:0 30:1 31:1 32:1 33:1 34:1 35:0 36:0 37:0 38:0 39:0 40:1 41:1 42:1 43:1 44:1 45:1 46:0 47:0 48:0 49:0 50:1 51:1 52:1 53:1 54:1 55:1 56:1 57:0 58:0 59:0 60:0 61:0 62:1 63:1 64:1 65:1 66:1 67:0 68:0 69:0 70:0 71:0 72:0 73:1 74:1 75:1 76:1 77:0 78:0 79:0 80:0 81:0 82:0 83:1 84:1 85:1 86:1 87:0 88:0 89:0 90:0 91:0 92:1 93:1 94:1 95:1 96:1 97:0 98:0 99:0 100:1 101:1 102:1 103:1 104:1 105:1 106:0 107:0 108:0 109:0 110:1 111:1 112:1 113:1 114:1 115:0 116:0 117:0 118:0 119:0 120:0 121:1 122:0 123:0 124:0 125:0 126:0 127:0 128:0 129:0 130:0 
0 0 0 0.2904835506759612 0 0 0 0 1:0 2:1 3:1 4:1 5:0 6:0 7:0 8:0 9:0 10:0 11:1 12:1 13:1 14:1 15:1 16:1 17:0 18:0 19:0 20:1 21:1 22:1 23:1 24:1 25:1 26:1 27:0 28:0 29:0 30:1 31:1 32:1 33:1 34:1 35:0 36:0 37:0 38:0 39:0 40:1 41:1 42:1 43:1 44:1 45:0 46:0 47:0 48:0 49:0 50:1 51:1 52:1 53:1 54:1 55:1 56:1 57:0 58:0 59:0 60:1 61:1 62:1 63:1 64:1 65:1 66:1 67:0 68:0 69:0 70:0 71:0 72:0 73:0 74:1 75:1 76:1 77:1 78:0 79:0 80:0 81:0 82:0 83:0 84:0 85:1 86:1 87:1 88:0 89:0 90:0 91:0 92:0 93:0 94:0 95:1 96:1 97:1 98:0 99:0 100:0 101:0 102:0 103:1 104:1 105:1 106:1 107:0 108:0 109:0 110:0 111:1 112:1 113:1 114:1 115:1 116:1 117:0 118:0 119:0 120:0 121:1 122:1 123:1 124:1 125:1 126:0 127:0 128:0 129:0 130:0 
1 0 1 0.1553613730312157 0 0.5330657276749229 0.7233648607327824 1 1:0 2:0 3:0 4:0 5:1 6:0 7:0 8:0 9:0 10:0 11:1 12:1 13:1 14:1 15:1 16:1 17:0 18:0 19:0 20:0 21:1 22:1 23:1 24:1 25:1 26:1 27:0 28:0 29:0 30:0 31:1 32:1 33:1 34:0 35:0 36:0 37:0 38:0 39:0 40:0 41:1 42:1 43:1 44:0 45:0 46:0 47:0 48:0 49:0 50:1 51:1 52:1 53:1 54:1 55:1 56:1 57:0 58:0 59:0 60:0 61:1 62:1 63:1 64:1 65:1 66:1 67:0 68:0 69:0 70:0 71:0 72:0 73:0 74:1 75:1 76:1 77:0 78:0 79:0 80:0 81:0 82:0 83:0 84:0 85:1 86:1 87:0 88:0 89:0 90:0 91:0 92:0 93:0 94:0 95:1 96:1 97:0 98:0 99:0 100:0 101:0 102:0 103:0 104:1 105:1 106:1 107:0 108:0 109:0 110:0 111:1 112:1 113:1 114:1 115:1 116:1 117:0 118:0 119:0 120:0 121:1 122:1 123:1 124:1 125:1 126:0 127:0 128:0 129:0 130:0 
1 0 1 0 0 0 0 0 1:0 2:0 3:1 4:1 5:0 6:0 7:0 8:0 9:0 10:1 11:1 12:1 13:1 14:1 15:1 16:0 17:0 18:0 19:0 20:1 21:1 22:1 23:1 24:1 25:0 26:0 27:0 28:0 29:0 30:1 31:1 32:1 33:0 34:0 35:0 36:0 37:0 38:0 39:0 40:1 41:1 42:1 43:1 44:0 45:0 46:0 47:0 48:0 49:0 50:1 51:1 52:1 53:1 54:1 55:1 56:0 57:0 58:0 59:0 60:1 61:1 62:1 63:1 64:1 65:1 66:1 67:0 68:0 69:0 70:0 71:0 72:0 73:1 74:1 75:1 76:1 77:0 78:0 79:0 80:0 81:0 82:0 83:0 84:1 85:1 86:1 87:0 88:0 89:0 90:0 91:0 92:0 93:0 94:1 95:1 96:1 97:0 98:0 99:0 100:0 101:0 102:0 103:1 104:1 105:1 106:1 107:0 108:0 109:0 110:1 111:1 112:1 113:1 114:1 115:1 116:0 117:0 118:0 119:0 120:1 121:1 122:1 123:1 124:1 125:0 126:0 127:0 128:0 129:0 130:0 
0 0 0 0.6583590114580377 0.05995625281418972 0 0 0 1:1 2:1 3:1 4:1 5:1 6:1 7:0 8:0 9:0 10:1 11:1 12:1 13:1 14:1 15:1 16:1 17:0 18:0 19:0 20:1 21:1 22:1 23:1 24:1 25:1 26:1 27:0 28:0 29:0 30:1 31:1 32:1 33:1 34:1 35:1 36:0 37:0 38:0 39:0 40:1 41:1 42:1 43:1 44:1 45:1 46:1 47:0 48:0 49:0 50:1 51:1 52:1 53:1 54:1 55:1 56:1 57:1 58:0 59:0 60:1 61:1 62:1 63:1 64:1 65:1 66:1 67:1 68:0 69:0 70:0 71:1 72:1 73:1 74:1 75:1 76:1 77:1 78:0 79:0 80:0 81:1 82:1 83:1 84:1 85:1 86:1 87:1 88:0 89:0 90:0 91:1 92:1 93:1 94:1 95:1 96:1 97:0 98:0 99:0 100:1 101:1 102:1 103:1 104:1 105:1 106:1 107:0 108:0 109:0 110:1 111:1 112:1 113:1 114:1 115:1 116:0 117:0 118:0 119:0 120:0 121:1 122:1 123:1 124:1 125:0 126:0 127:0 128:0 129:0 130:0 
0.9153526171758575 0 0 0 0 0 0 0 1:0 2:1 3:1 4:1 5:1 6:1 7:0 8:0 9:0 10:0 11:1 12:1 13:1 14:1 15:1 16:1 17:0 18:0 19:0 20:0 21:1 22:1 23:1 24:1 25:1 26:0 27:0 28:0 29:0 30:1 31:1 32:1 33:1 34:1 35:0 36:0 37:0 38:0 39:0 40:1 41:1 42:1 43:1 44:1 45:0 46:0 47:0 48:0 49:0 50:1 51:1 52:1 53:1 54:1 55:1 56:1 57:0 58:0 59:0 60:1 61:1 62:1 63:1 64:1 65:1 66:1 67:0 68:0 69:0 70:0 71:0 72:0 73:0 74:1 75:1 76:1 77:0 78:0 79:0 80:0 81:0 82:0 83:0 84:0 85:1 86:1 87:0 88:0 89:0 90:0 91:0 92:0 93:0 94:0 95:1 96:1 97:0 98:0 99:0 100:0 101:0 102:0 103:1 104:1 105:1 106:1 107:0 108:0 109:0 110:0 111:1 112:1 113:1 114:1 115:1 116:1 117:0 118:0 119:0 120:0 121:1 122:1 123:1 124:1 125:1 126:0 127:0 128:0 129:0 130:0 
0 0 0.3926819661772997 0 0 0 0 0 1:0 2:0 3:1 4:0 5:0 6:0 7:0 8:0 9:0 10:0 11:1 12:1 13:1 14:1 15:1 16:1 17:1 18:0 19:0 20:0 21:1 22:1 23:1 24:1 25:1 26:1 27:1 28:0 29:0 30:1 31:1 32:1 33:1 34:1 35:1 36:1 37:0 38:0 39:0 40:1 41:1 42:1 43:1 44:1 45:1 46:1 47:0 48:0 49:0 50:1 51:1 52:1 53:1 54:1 55:1 56:1 57:1 58:0 59:0 60:0 61:1 62:1 63:1 64:1 65:1 66:1 67:1 68:0 69:0 70:0 71:0 72:0 73:1 74:1 75:1 76:1 77:1 78:0 79:0 80:0 81:0 82:0 83:1 84:1 85:1 86:1 87:1 88:0 89:0 90:0 91:0 92:0 93:1 94:1 95:1 96:1 97:1 98:0 99:0 100:0 101:1 102:1 103:1 104:1 105:1 106:1 107:0 108:0 109:0 110:1 111:1 112:1 113:1 114:1 115:1 116:0 117:0 118:0 119:0 120:0 121:1 122:1 123:1 124:1 125:0 126:0 127:0 128:0 129:0 130:0 
0 1 0.5020707435291872 1 0.2467869626780349 0 0.818032024180923 0.6590666437614118 1:1 2:1 3:1 4:1 5:1 6:1 7:1 8:0 9:0 10:0 11:1 12:1 13:1 14:1 15:1 16:1 17:1 18:0 19:0 20:0 21:1 22:1 23:1 24:1 25:1 26:1 27:1 28:0 29:0 30:1 31:1 32:1 33:1 34:1 35:1 36:1 37:0 38:0 39:0 40:1 41:1 42:1 43:1 44:1 45:1 46:1 47:0 48:0 49:0 50:0 51:1 52:1 53:1 54:1 55:1 56:1 57:1 58:1 59:0 60:0 61:1 62:1 63:1 64:1 65:1 66:1 67:1 68:1 69:0 70:0 71:1 72:1 73:1 74:1 75:1 76:1 77:1 78:1 79:0 80:0 81:1 82:1 83:1 84:1 85:1 86:1 87:1 88:1 89:0 90:0 91:1 92:1 93:1 94:1 95:1 96:1 97:1 98:0 99:0 100:0 101:1 102:1 103:1 104:1 105:1 106:1 107:0 108:0 109:0 110:0 111:1 112:1 113:1 114:1 115:1 116:1 117:0 118:0 119:0 120:0 121:1 122:1 123:1 124:1 125:1 126:0 127:0 128:0 129:0 130:0 
1 0 0 0 0 0 0 0 1:0 2:1 3:1 4:1 5:0 6:0 7:0 8:0 9:0 10:0 11:1 12:1 13:1 14:1 15:1 16:1 17:0 18:0 19:0 20:1 21:1 22:1 23:1 24:1 25:1 26:0 27:0 28:0 29:0 30:1 31:1 32:1 33:1 34:1 35:0 36:0 37:0 38:0 39:0 40:1 41:1 42:1 43:1 44:1 45:0 46:0 47:0 48:0 49:0 50:1 51:1 52:1 53:1 54:1 55:1 56:1 57:0 58:0 59:0 60:1 61:1 62:1 63:1 64:1 65:1 66:1 67:0 68:0 69:0 70:0 71:0 72:0 73:0 74:1 75:1 76:1 77:0 78:0 79:0 80:0 81:0 82:0 83:0 84:0 85:1 86:1 87:0 88:0 89:0 90:0 91:0 92:0 93:0 94:1 95:1 96:1 97:0 98:0 99:0 100:0 101:0 102:0 103:1 104:1 105:1 106:1 107:0 108:0 109:0 110:0 111:1 112:1 113:1 114:1 115:1 116:1 117:0 118:0 119:0 120:1 121:1 122:1 123:1 124:1 125:1 126:0 127:0 128:0 129:0 130:0 
1 0.08033804406829828 1 0 0 0 0.8575518107077853 0 1:0 2:1 3:1 4:1 5:1 6:1 7:1 8:1 9:0 10:0 11:0 12:1 13:1 14:1 15:1 16:1 17:1 18:0 19:0 20:0 21:1 22:1 23:1 24:1 25:1 26:1 27:0 28:0 29:0 30:1 31:1 32:1 33:1 34:1 35:1 36:1 37:0 38:0 39:0 40:1 41:1 42:1 43:1 44:1 45:1 46:1 47:1 48:0 49:0 50:0 51:1 52:1 53:1 54:1 55:1 56:1 57:1 58:1 59:0 60:0 61:0 62:1 63:1 64:1 65:1 66:1 67:1 68:1 69:0 70:0 71:0 72:0 73:1 74:1 75:1 76:1 77:1 78:1 79:0 80:0 81:0 82:0 83:1 84:1 85:1 86:1 87:1 88:1 89:0 90:0 91:0 92:1 93:1 94:1 95:1 96:1 97:1 98:0 99:0 100:0 101:1 102:1 103:1 104:1 105:1 106:1 107:1 108:0 109:0 110:0 111:0 112:1 113:1 114:1 115:1 116:0 117:0 118:0 119:0 120:0 121:0 122:0 123:1 124:0 125:0 126:0 127:0 128:0 129:0 130:0 
0 0 1 0 0 0 0 0 1:1 2:1 3:1 4:1 5:1 6:1 7:1 8:0 9:0 10:0 11:1 12:1 13:1 14:1 15:1 16:1 17:1 18:0 19:0 20:0 21:1 22:1 23:1 24:1 25:1 26:1 27:0 28:0 29:0 30:1 31:1 32:1 33:1 34:1 35:1 36:1 37:0 38:0 39:0 40:1 41:1 42:1 43:1 44:1 45:1 46:1 47:1 48:0 49:0 50:0 51:1 52:1 53:1 54:1 55:1 56:1 57:1 58:0 59:0 60:0 61:1 62:1 63:1 64:1 65:1 66:1 67:1 68:1 69:0 70:0 71:0 72:0 73:1 74:1 75:1 76:1 77:1 78:1 79:0 80:0 81:0 82:1 83:1 84:1 85:1 86:1 87:1 88:0 89:0 90:0 91:1 92:1 93:1 94:1 95:1 96:1 97:0 98:0 99:0 100:0 101:1 102:1 103:1 104:1 105:1 106:1 107:0 108:0 109:0 110:0 111:1 112:1 113:1 114:1 115:0 116:0 117:0 118:0 119:0 120:0 121:0 122:1 123:1 124:0 125:0 126:0 127:0 128:0 129:0 130:0 
0.6527549193471871 0 0 0 0 0 0 0 1:0 2:1 3:1 4:1 5:0 6:0 7:0 8:0 9:0 10:1 11:1 12:1 13:1 14:1 15:1 16:0 17:0 18:0 19:0 20:1 21:1 22:1 23:1 24:1 25:1 26:0 27:0 28:0 29:0 30:1 31:1 32:1 33:1 34:0 35:0 36:0 37:0 38:0 39:0 40:1 41:1 42:1 43:1 44:1 45:0 46:0 47:0 48:0 49:0 50:1 51:1 52:1 53:1 54:1 55:1 56:0 57:0 58:0 59:0 60:0 61:1 62:1 63:1 64:1 65:1 66:1 67:0 68:0 69:0 70:0 71:0 72:0 73:0 74:1 75:1 76:1 77:0 78:0 79:0 80:0 81:0 82:0 83:0 84:1 85:1 86:1 87:0 88:0 89:0 90:0 91:0 92:0 93:1 94:1 95:1 96:1 97:0 98:0 99:0 100:1 101:1 102:1 103:1 104:1 105:1 106:0 107:0 108:0 109:0 110:1 111:1 112:1 113:1 114:1 115:0 116:0 117:0 118:0 119:0 120:0 121:1 122:0 123:0 124:0 125:0 126:0 127:0 128:0 129:0 130:0 
0.2718145115286543 1 1 1 0 0.5570385794684177 0 0.6748359646607114 1:0 2:1 3:1 4:1 5:1 6:1 7:1 8:0 9:0 10:0 11:1 12:1 13:1 14:1 15:1 16:1 17:1 18:0 19:0 20:0 21:1 22:1 23:1 24:1 25:1 26:1 27:1 28:0 29:0 30:1 31:1 32:1 33:1 34:1 35:1 36:1 37:1 38:0 39:0 40:0 41:1 42:1 43:1 44:1 45:1 46:1 47:1 48:0 49:0 50:0 51:1 52:1 53:1 54:1 55:1 56:1 57:1 58:1 59:0 60:0 61:1 62:1 63:1 64:1 65:1 66:1 67:1 68:1 69:0 70:0 71:0 72:0 73:1 74:1 75:1 76:1 77:1 78:1 79:0 80:0 81:0 82:1 83:1 84:1 85:1 86:1 87:1 88:1 89:0 90:0 91:0 92:1 93:1 94:1 95:1 96:1 97:1 98:0 99:0 100:0 101:1 102:1 103:1 104:1 105:1 106:1 107:1 108:0 109:0 110:0 111:1 112:1 113:1 114:1 115:1 116:1 117:0 118:0 119:0 120:0 121:0 122:1 123:1 124:1 125:1 126:0 127:0 128:0 129:0 130:0 
0 1 0 1 1 0 0.5225500166253166 0.4334100506489731 1:1 2:1 3:1 4:1 5:1 6:1 7:0 8:0 9:0 10:1 11:1 12:1 13:1 14:1 15:1 16:1 17:1 18:0 19:0 20:1 21:1 22:1 23:1 24:1 25:1 26:1 27:0 28:0 29:0 30:1 31:1 32:1 33:1 34:1 35:1 36:0 37:0 38:0 39:0 40:1 41:1 42:1 43:1 44:1 45:1 46:1 47:0 48:0 49:0 50:1 51:1 52:1 53:1 54:1 55:1 56:1 57:1 58:0 59:0 60:1 61:1 62:1 63:1 64:1 65:1 66:1 67:1 68:0 69:0 70:0 71:1 72:1 73:1 74:1 75:1 76:1 77:1 78:1 79:0 80:1 81:1 82:1 83:1 84:1 85:1 86:1 87:1 88:0 89:0 90:1 91:1 92:1 93:1 94:1 95:1 96:1 97:1 98:0 99:0 100:1 101:1 102:1 103:1 104:1 105:1 106:1 107:0 108:0 109:0 110:1 111:1 112:1 113:1 114:1 115:1 116:0 117:0 118:0 119:0 120:1 121:1 122:1 123:1 124:1 125:0 126:0 127:0 128:0 129:0 130:0 
0 0.7017431253107119 0 1 0 0 0 0 1:0 2:1 3:1 4:0 5:0 6:0 7:0 8:0 9:0 10:0 11:1 12:1 13:1 14:1 15:1 16:1 17:0 18:0 19:0 20:1 21:1 22:1 23:1 24:1 25:1 26:1 27:0 28:0 29:0 30:1 31:1 32:1 33:1 34:1 35:1 36:1 37:0 38:0 39:0 40:1 41:1 42:1 43:1 44:1 45:1 46:1 47:0 48:0 49:0 50:1 51:1 52:1 53:1 54:1 55:1 56:1 57:0 58:0 59:0 60:1 61:1 62:1 63:1 64:1 65:1 66:1 67:1 68:0 69:0 70:0 71:1 72:1 73:1 74:1 75:1 76:1 77:1 78:0 79:0 80:0 81:0 82:1 83:1 84:1 85:1 86:1 87:1 88:0 89:0 90:0 91:1 92:1 93:1 94:1 95:1 96:1 97:0 98:0 99:0 100:1 101:1 102:1 103:1 104:1 105:1 106:1 107:0 108:0 109:0 110:1 111:1 112:1 113:1 114:1 115:1 116:0 117:0 118:0 119:0 120:0 121:1 122:1 123:1 124:0 125:0 126:0 127:0 128:0 129:0 130:0 
0 0 1 0 0 0 0 0 1:0 2:0 3:1 4:0 5:0 6:0 7:0 8:0 9:0 10:1 11:1 12:1 13:1 14:1 15:1 16:1 17:0 18:0 19:0 20:1 21:1 22:1 23:1 24:1 25:1 26:0 27:0 28:0 29:0 30:1 31:1 32:1 33:0 34:0 35:0 36:0 37:0 38:0 39:0 40:1 41:1 42:1 43:1 44:0 45:0 46:0 47:0 48:0 49:0 50:1 51:1 52:1 53:1 54:1 55:1 56:0 57:0 58:0 59:0 60:1 61:1 62:1 63:1 64:1 65:1 66:1 67:0 68:0 69:0 70:0 71:0 72:0 73:0 74:1 75:1 76:1 77:0 78:0 79:0 80:0 81:0 82:0 83:0 84:0 85:1 86:1 87:0 88:0 89:0 90:0 91:0 92:0 93:0 94:1 95:1 96:1 97:0 98:0 99:0 100:0 101:0 102:0 103:1 104:1 105:1 106:1 107:0 108:0 109:0 110:1 111:1 112:1 113:1 114:1 115:1 116:0 117:0 118:0 119:0 120:1 121:1 122:1 123:1 124:1 125:0 126:0 127:0 128:0 129:0 130:0 
0 0 0 0 0.8379209527022953 0 1 0 1:0 2:1 3:0 4:0 5:0 6:0 7:0 8:0 9:0 10:0 11:1 12:1 13:1 14:1 15:1 16:1 17:0 18:0 19:0 20:1 21:1 22:1 23:1 24:1 25:1 26:0 27:0 28:0 29:0 30:1 31:1 32:1 33:1 34:1 35:0 36:0 37:0 38:0 39:0 40:1 41:1 42:1 43:1 44:1 45:1 46:0 47:0 48:0 49:0 50:1 51:1 52:1 53:1 54:1 55:1 56:1 57:0 58:0 59:0 60:1 61:1 62:1 63:1 64:1 65:1 66:1 67:0 68:0 69:0 70:0 71:0 72:1 73:1 74:1 75:1 76:1 77:0 78:0 79:0 80:0 81:0 82:1 83:1 84:1 85:1 86:1 87:0 88:0 89:0 90:0 91:1 92:1 93:1 94:1 95:1 96:1 97:0 98:0 99:0 100:1 101:1 102:1 103:1 104:1 105:1 106:0 107:0 108:0 109:0 110:1 111:1 112:1 113:1 114:1 115:0 116:0 117:0 118:0 119:0 120:0 121:0 122:1 123:0 124:0 125:0 126:0 127:0 128:0 129:0 130:0 
0 0 0 0 0 0 0 0.243672685421911 1:1 2:1 3:1 4:1 5:1 6:1 7:0 8:0 9:0 10:1 11:1 12:1 13:1 14:1 15:1 16:1 17:1 18:0 19:0 20:1 21:1 22:1 23:1 24:1 25:1 26:1 27:0 28:0 29:0 30:1 31:1 32:1 33:1 34:1 35:1 36:0 37:0 38:0 39:0 40:1 41:1 42:1 43:1 44:1 45:1 46:1 47:0 48:0 49:0 50:1 51:1 52:1 53:1 54:1 55:1 56:1 57:1 58:0 59:0 60:0 61:1 62:1 63:1 64:1 65:1 66:1 67:1 68:0 69:0 70:0 71:0 72:1 73:1 74:1 75:1 76:1 77:1 78:0 79:0 80:0 81:1 82:1 83:1 84:1 85:1 86:1 87:1 88:0 89:0 90:1 91:1 92:1 93:1 94:1 95:1 96:1 97:0 98:0 99:0 100:1 101:1 102:1 103:1 104:1 105:1 106:0 107:0 108:0 109:0 110:1 111:1 112:1 113:1 114:1 115:0 116:0 117:0 118:0 119:0 120:0 121:1 122:1 123:1 124:0 125:0 126:0 127:0 128:0 129:0 130:0 
1 0 0 0 0 1 0 0 1:1 2:1 3:1 4:1 5:1 6:1 7:0 8:0 9:0 10:1 11:1 12:1 13:1 14:1 15:1 16:1 17:0 18:0 19:0 20:1 21:1 22:1 23:1 24:1 25:1 26:1 27:0 28:0 29:0 30:1 31:1 32:1 33:1 34:1 35:1 36:0 37:0 38:0 39:0 40:1 41:1 42:1 43:1 44:1 45:1 46:1 47:0 48:0 49:0 50:1 51:1 52:1 53:1 54:1 55:1 56:1 57:0 58:0 59:0 60:0 61:0 62:1 63:1 64:1 65:1 66:1 67:1 68:0 69:0 70:0 71:0 72:0 73:1 74:1 75:1 76:1 77:1 78:0 79:0 80:0 81:0 82:0 83:1 84:1 85:1 86:1 87:1 88:0 89:0 90:0 91:0 92:1 93:1 94:1 95:1 96:1 97:0 98:0 99:0 100:1 101:1 102:1 103:1 104:1 105:1 106:0 107:0 108:0 109:0 110:1 111:1 112:1 113:1 114:1 115:0 116:0 117:0 118:0 119:0 120:0 121:0 122:0 123:1 124:0 125:0 126:0 127:0 128:0 129:0 130:0 
1 0.5837244115617548 0 1 1 0.6222816550992991 0.3258814913698269 0.4547801889455476 1:0 2:0 3:1 4:0 5:0 6:0 7:0 8:0 9:0 10:0 11:0 12:1 13:1 14:1 15:1 16:1 17:1 18:0 19:0 20:0 21:1 22:1 23:1 24:1 25:1 26:1 27:1 28:0 29:0 30:0 31:1 32:1 33:1 34:1 35:1 36:1 37:0 38:0 39:0 40:1 41:1 42:1 43:1 44:1 45:1 46:1 47:0 48:0 49:0 50:0 51:1 52:1 53:1 54:1 55:1 56:1 57:1 58:0 59:0 60:0 61:1 62:1 63:1 64:1 65:1 66:1 67:1 68:0 69:0 70:0 71:0 72:0 73:1 74:1 75:1 76:1 77:1 78:0 79:0 80:0 81:0 82:0 83:1 84:1 85:1 86:1 87:1 88:0 89:0 90:0 91:1 92:1 93:1 94:1 95:1 96:1 97:1 98:0 99:0 100:0 101:1 102:1 103:1 104:1 105:1 106:1 107:0 108:0 109:0 110:0 111:1 112:1 113:1 114:1 115:1 116:1 117:0 118:0 119:0 120:0 121:0 122:1 123:1 124:1 125:0 126:0 127:0 128:0 129:0 130:0 
0 0 1 0 0 0 0 0 1:0 2:1 3:1 4:1 5:0 6:0 7:0 8:0 9:0 10:1 11:1 12:1 13:1 14:1 15:1 16:0 17:0 18:0 19:0 20:1 21:1 22:1 23:1 24:1 25:0 26:0 27:0 28:0 29:0 30:1 31:1 32:1 33:0 34:0 35:0 36:0 37:0 38:0 39:0 40:1 41:1 42:1 43:1 44:0 45:0 46:0 47:0 48:0 49:0 50:1 51:1 52:1 53:1 54:1 55:1 56:0 57:0 58:0 59:0 60:1 61:1 62:1 63:1 64:1 65:1 66:1 67:0 68:0 69:0 70:0 71:0 72:0 73:1 74:1 75:1 76:1 77:0 78:0 79:0 80:0 81:0 82:0 83:0 84:1 85:1 86:1 87:0 88:0 89:0 90:0 91:0 92:0 93:0 94:1 95:1 96:1 97:0 98:0 99:0 100:0 101:0 102:0 103:1 104:1 105:1 106:1 107:0 108:0 109:0 110:1 111:1 112:1 113:1 114:1 115:1 116:0 117:0 118:0 119:0 120:1 121:1 122:1 123:1 124:0 125:0 126:0 127:0 128:0 129:0 130:0 
1 0 0 0.5771179046523739 0 0 0 0 1:0 2:1 3:0 4:0 5:0 6:0 7:0 8:0 9:0 10:0 11:1 12:1 13:1 14:1 15:1 16:1 17:0 18:0 19:0 20:0 21:1 22:1 23:1 24:1 25:1 26:1 27:0 28:0 29:0 30:1 31:1 32:1 33:1 34:1 35:1 36:0 37:0 38:0 39:0 40:1 41:1 42:1 43:1 44:1 45:1 46:1 47:0 48:0 49:0 50:0 51:1 52:1 53:1 54:1 55:1 56:1 57:0 58:0 59:0 60:0 61:1 62:1 63:1 64:1 65:1 66:1 67:0 68:0 69:0 70:0 71:0 72:1 73:1 74:1 75:1 76:1 77:1 78:0 79:0 80:0 81:0 82:1 83:1 84:1 85:1 86:1 87:1 88:0 89:0 90:0 91:1 92:1 93:1 94:1 95:1 96:1 97:0 98:0 99:0 100:0 101:1 102:1 103:1 104:1 105:1 106:1 107:0 108:0 109:0 110:0 111:1 112:1 113:1 114:1 115:1 116:0 117:0 118:0 119:0 120:0 121:0 122:1 123:1 124:0 125:0 126:0 127:0 128:0 129:0 130:0 
1 0 0 0 0 0 0 0 1:0 2:1 3:0 4:0 5:0 6:0 7:0 8:0 9:0 10:0 11:1 12:1 13:1 14:1 15:1 16:1 17:0 18:0 19:0 20:1 21:1 22:1 23:1 24:1 25:1 26:1 27:0 28:0 29:0 30:1 31:1 32:1 33:1 34:1 35:1 36:0 37:0 38:0 39:0 40:1 41:1 42:1 43:1 44:1 45:1 46:0 47:0 48:0 49:0 50:1 51:1 52:1 53:1 54:1 55:1 56:1 57:0 58:0 59:0 60:1 61:1 62:1 63:1 64:1 65:1 66:1 67:0 68:0 69:0 70:0 71:0 72:1 73:1 74:1 75:1 76:1 77:0 78:0 79:0 80:0 81:0 82:1 83:1 84:1 85:1 86:1 87:0 88:0 89:0 90:0 91:1 92:1 93:1 94:1 95:1 96:1 97:0 98:0 99:0 100:0 101:1 102:1 103:1 104:1 105:1 106:1 107:0 108:0 109:0 110:0 111:1 112:1 113:1 114:1 115:0 116:0 117:0 118:0 119:0 120:0 121:0 122:1 123:1 124:0 125:0 126:0 127:0 128:0 129:0 130:0 
0 0 0.05353133017375582 0 0 0 0.5432567397560068 0 1:0 2:1 3:1 4:1 5:1 6:1 7:0 8:0 9:0 10:0 11:1 12:1 13:1 14:1 15:1 16:1 17:0 18:0 19:0 20:0 21:1 22:1 23:1 24:1 25:1 26:1 27:0 28:0 29:0 30:1 31:1 32:1 33:1 34:1 35:1 36:1 37:0 38:0 39:0 40:1 41:1 42:1 43:1 44:1 45:1 46:1 47:0 48:0 49:0 50:1 51:1 52:1 53:1 54:1 55:1 56:1 57:1 58:0 59:0 60:1 61:1 62:1 63:1 64:1 65:1 66:1 67:1 68:0 69:0 70:0 71:0 72:1 73:1 74:1 75:1 76:1 77:1 78:0 79:0 80:0 81:0 82:1 83:1 84:1 85:1 86:1 87:1 88:0 89:0 90:0 91:1 92:1 93:1 94:1 95:1 96:1 97:1 98:0 99:0 100:0 101:1 102:1 103:1 104:1 105:1 106:1 107:0 108:0 109:0 110:0 111:1 112:1 113:1 114:1 115:1 116:0 117:0 118:0 119:0 120:0 121:0 122:1 123:0 124:0 125:0 126:0 127:0 128:0 129:0 130:0 
0 0 0 0 0 1 0 0 1:0 2:1 3:1 4:1 5:1 6:0 7:0 8:0 9:0 10:0 11:1 12:1 13:1 14:1 15:1 16:1 17:1 18:0 19:0 20:0 21:1 22:1 23:1 24:1 25:1 26:1 27:0 28:0 29:0 30:0 31:1 32:1 33:1 34:1 35:1 36:0 37:0 38:0 39:0 40:0 41:1 42:1 43:1 44:1 45:1 46:1 47:0 48:0 49:0 50:0 51:1 52:1 53:1 54:1 55:1 56:1 57:0 58:0 59:0 60:0 61:1 62:1 63:1 64:1 65:1 66:1 67:1 68:0 69:0 70:0 71:0 72:0 73:0 74:1 75:1 76:1 77:1 78:0 79:0 80:0 81:0 82:0 83:0 84:1 85:1 86:1 87:1 88:0 89:0 90:0 91:0 92:0 93:0 94:1 95:1 96:1 97:1 98:0 99:0 100:0 101:1 102:1 103:1 104:1 105:1 106:1 107:0 108:0 109:0 110:1 111:1 112:1 113:1 114:1 115:1 116:0 117:0 118:0 119:0 120:0 121:1 122:1 123:1 124:0 125:0 126:0 127:0 128:0 129:0 130:0 
0 0 0 0.8256881634958586 0 1 0 0 1:1 2:1 3:1 4:1 5:1 6:1 7:0 8:0 9:0 10:0 11:1 12:1 13:1 14:1 15:1 16:1 17:0 18:0 19:0 20:0 21:1 22:1 23:1 24:1 25:1 26:1 27:0 28:0 29:0 30:0 31:1 32:1 33:1 34:1 35:1 36:0 37:0 38:0 39:0 40:1 41:1 42:1 43:1 44:1 45:1 46:0 47:0 48:0 49:0 50:1 51:1 52:1 53:1 54:1 55:1 56:1 57:0 58:0 59:0 60:0 61:1 62:1 63:1 64:1 65:1 66:1 67:1 68:0 69:0 70:0 71:0 72:0 73:0 74:1 75:1 76:1 77:1 78:0 79:0 80:0 81:0 82:0 83:0 84:0 85:1 86:1 87:1 88:0 89:0 90:0 91:0 92:0 93:0 94:0 95:1 96:1 97:1 98:0 99:0 100:0 101:0 102:1 103:1 104:1 105:1 106:1 107:1 108:0 109:0 110:0 111:1 112:1 113:1 114:1 115:1 116:1 117:0 118:0 119:0 120:0 121:1 122:1 123:1 124:1 125:1 126:0 127:0 128:0 129:0 130:0 
0 1 1 0 0.05775223335801005 0 0 0 1:0 2:1 3:1 4:1 5:1 6:1 7:1 8:0 9:0 10:0 11:0 12:1 13:1 14:1 15:1 16:1 17:1 18:1 19:0 20:0 21:1 22:1 23:1 24:1 25:1 26:1 27:1 28:0 29:0 30:1 31:1 32:1 33:1 34:1 35:1 36:1 37:0 38:0 39:0 40:1 41:1 42:1 43:1 44:1 45:1 46:1 47:1 48:0 49:0 50:1 51:1 52:1 53:1 54:1 55:1 56:1 57:1 58:1 59:0 60:0 61:1 62:1 63:1 64:1 65:1 66:1 67:1 68:1 69:0 70:0 71:0 72:0 73:1 74:1 75:1 76:1 77:1 78:1 79:0 80:0 81:0 82:1 83:1 84:1 85:1 86:1 87:1 88:1 89:0 90:0 91:0 92:1 93:1 94:1 95:1 96:1 97:1 98:1 99:0 100:0 101:1 102:1 103:1 104:1 105:1 106:1 107:1 108:0 109:0 110:0 111:1 112:1 113:1 114:1 115:1 116:1 117:0 118:0 119:0 120:0 121:0 122:1 123:1 124:1 125:0 126:0 127:0 128:0 129:0 130:0 
1 0 0 0 0 0 0 0 1:0 2:1 3:1 4:1 5:1 6:0 7:0 8:0 9:0 10:0 11:1 12:1 13:1 14:1 15:1 16:1 17:0 18:0 19:0 20:0 21:1 22:1 23:1 24:1 25:1 26:1 27:0 28:0 29:0 30:1 31:1 32:1 33:1 34:1 35:1 36:1 37:0 38:0 39:0 40:1 41:1 42:1 43:1 44:1 45:1 46:1 47:0 48:0 49:0 50:0 51:1 52:1 53:1 54:1 55:1 56:1 57:0 58:0 59:0 60:0 61:1 62:1 63:1 64:1 65:1 66:1 67:0 68:0 69:0 70:0 71:0 72:0 73:1 74:1 75:1 76:1 77:1 78:0 79:0 80:0 81:0 82:0 83:1 84:1 85:1 86:1 87:1 88:0 89:0 90:0 91:1 92:1 93:1 94:1 95:1 96:1 97:0 98:0 99:0 100:0 101:1 102:1 103:1 104:1 105:1 106:1 107:0 108:0 109:0 110:0 111:1 112:1 113:1 114:1 115:0 116:0 117:0 118:0 119:0 120:0 121:0 122:1 123:0 124:0 125:0 126:0 127:0 128:0 129:0 130:0 
1 0 0 0 0 0 0 0.737718817664647 1:0 2:1 3:1 4:1 5:0 6:0 7:0 8:0 9:0 10:0 11:1 12:1 13:1 14:1 15:1 16:1 17:0 18:0 19:0 20:1 21:1 22:1 23:1 24:1 25:1 26:1 27:0 28:0 29:0 30:1 31:1 32:1 33:1 34:1 35:1 36:0 37:0 38:0 39:0 40:1 41:1 42:1 43:1 44:1 45:1 46:0 47:0 48:0 49:0 50:1 51:1 52:1 53:1 54:1 55:1 56:1 57:0 58:0 59:0 60:1 61:1 62:1 63:1 64:1 65:1 66:1 67:0 68:0 69:0 70:0 71:0 72:1 73:1 74:1 75:1 76:1 77:0 78:0 79:0 80:0 81:0 82:1 83:1 84:1 85:1 86:1 87:0 88:0 89:0 90:0 91:1 92:1 93:1 94:1 95:1 96:1 97:0 98:0 99:0 100:1 101:1 102:1 103:1 104:1 105:1 106:0 107:0 108:0 109:0 110:1 111:1 112:1 113:1 114:0 115:0 116:0 117:0 118:0 119:0 120:0 121:0 122:1 123:0 124:0 125:0 126:0 127:0 128:0 129:0 130:0 
0 0 0.3373699135964522 0 0 0 0 0 1:0 2:0 3:1 4:1 5:0 6:0 7:0 8:0 9:0 10:0 11:1 12:1 13:1 14:1 15:1 16:1 17:0 18:0 19:0 20:1 21:1 22:1 23:1 24:1 25:1 26:0 27:0 28:0 29:0 30:1 31:1 32:1 33:1 34:0 35:0 36:0 37:0 38:0 39:0 40:1 41:1 42:1 43:1 44:0 45:0 46:0 47:0 48:0 49:0 50:1 51:1 52:1 53:1 54:1 55:1 56:1 57:0 58:0 59:0 60:1 61:1 62:1 63:1 64:1 65:1 66:1 67:0 68:0 69:0 70:0 71:0 72:0 73:0 74:1 75:1 76:1 77:0 78:0 79:0 80:0 81:0 82:0 83:0 84:0 85:1 86:1 87:0 88:0 89:0 90:0 91:0 92:0 93:0 94:0 95:1 96:1 97:0 98:0 99:0 100:0 101:0 102:0 103:1 104:1 105:1 106:1 107:0 108:0 109:0 110:0 111:1 112:1 113:1 114:1 115:1 116:1 117:0 118:0 119:0 120:1 121:1 122:1 123:1 124:1 125:0 126:0 127:0 128:0 129:0 130:0 
0.08102210818746453 0 0 0 0 0 0 0 1:1 2:1 3:1 4:1 5:1 6:0 7:0 8:0 9:0 10:1 11:1 12:1 13:1 14:1 15:1 16:0 17:0 18:0 19:0 20:1 21:1 22:1 23:1 24:1 25:1 26:0 27:0 28:0 29:0 30:1 31:1 32:1 33:1 34:0 35:0 36:0 37:0 38:0 39:0 40:1 41:1 42:1 43:1 44:1 45:1 46:0 47:0 48:0 49:0 50:1 51:1 52:1 53:1 54:1 55:1 56:0 57:0 58:0 59:0 60:0 61:1 62:1 63:1 64:1 65:1 66:1 67:0 68:0 69:0 70:0 71:0 72:0 73:1 74:1 75:1 76:1 77:0 78:0 79:0 80:0 81:0 82:0 83:1 84:1 85:1 86:1 87:0 88:0 89:0 90:0 91:0 92:0 93:1 94:1 95:1 96:1 97:0 98:0 99:0 100:1 101:1 102:1 103:1 104:1 105:1 106:0 107:0 108:0 109:0 110:1 111:1 112:1 113:1 114:1 115:0 116:0 117:0 118:0 119:0 120:0 121:1 122:1 123:0 124:0 125:0 126:0 127:0 128:0 129:0 130:0 
0 0.1479879161498406 0.1070072492185839 0 0 0 0 0 1:0 2:1 3:1 4:1 5:1 6:1 7:1 8:0 9:0 10:0 11:1 12:1 13:1 14:1 15:1 16:1 17:1 18:0 19:0 20:1 21:1 22:1 23:1 24:1 25:1 26:1 27:0 28:0 29:0 30:1 31:1 32:1 33:1 34:1 35:1 36:1 37:0 38:0 39:0 40:1 41:1 42:1 43:1 44:1 45:1 46:1 47:1 48:0 49:0 50:1 51:1 52:1 53:1 54:1 55:1 56:1 57:1 58:0 59:0 60:1 61:1 62:1 63:1 64:1 65:1 66:1 67:1 68:1 69:0 70:0 71:0 72:1 73:1 74:1 75:1 76:1 77:1 78:1 79:0 80:0 81:0 82:1 83:1 84:1 85:1 86:1 87:1 88:0 89:0 90:0 91:1 92:1 93:1 94:1 95:1 96:1 97:1 98:0 99:0 100:1 101:1 102:1 103:1 104:1 105:1 106:1 107:0 108:0 109:0 110:1 111:1 112:1 113:1 114:1 115:1 116:0 117:0 118:0 119:0 120:0 121:1 122:1 123:1 124:1 125:0 126:0 127:0 128:0 129:0 130:0 
0.4281343718653629 0 0 0 0 0 0 0 1:1 2:1 3:1 4:1 5:1 6:1 7:0 8:0 9:0 10:0 11:1 12:1 13:1 14:1 15:1 16:1 17:0 18:0 19:0 20:0 21:1 22:1 23:1 24:1 25:1 26:1 27:0 28:0 29:0 30:1 31:1 32:1 33:1 34:1 35:1 36:0 37:0 38:0 39:0 40:1 41:1 42:1 43:1 44:1 45:1 46:1 47:0 48:0 49:0 50:0 51:1 52:1 53:1 54:1 55:1 56:1 57:1 58:0 59:0 60:0 61:0 62:0 63:1 64:1 65:1 66:1 67:1 68:0 69:0 70:0 71:0 72:0 73:1 74:1 75:1 76:1 77:1 78:0 79:0 80:0 81:0 82:0 83:1 84:1 85:1 86:1 87:1 88:0 89:0 90:0 91:0 92:0 93:1 94:1 95:1 96:1 97:0 98:0 99:0 100:1 101:1 102:1 103:1 104:1 105:1 106:0 107:0 108:0 109:0 110:0 111:1 112:1 113:1 114:1 115:0 116:0 117:0 118:0 119:0 120:0 121:0 122:1 123:0 124:0 125:0 126:0 127:0 128:0 129:0 130:0 
0 0 0 0 0 0.3200478212237487 0 0 1:1 2:1 3:1 4:1 5:1 6:1 7:0 8:0 9:0 10:1 11:1 12:1 13:1 14:1 15:1 16:0 17:0 18:0 19:0 20:1 21:1 22:1 23:1 24:1 25:0 26:0 27:0 28:0 29:0 30:1 31:1 32:1 33:1 34:1 35:0 36:0 37:0 38:0 39:0 40:1 41:1 42:1 43:1 44:1 45:1 46:0 47:0 48:0 49:0 50:1 51:1 52:1 53:1 54:1 55:1 56:1 57:0 58:0 59:0 60:0 61:0 62:0 63:1 64:1 65:1 66:1 67:0 68:0 69:0 70:0 71:0 72:0 73:0 74:0 75:1 76:1 77:0 78:0 79:0 80:0 81:0 82:0 83:0 84:0 85:1 86:1 87:0 88:0 89:0 90:0 91:0 92:0 93:1 94:1 95:1 96:1 97:0 98:0 99:0 100:1 101:1 102:1 103:1 104:1 105:1 106:1 107:0 108:0 109:0 110:1 111:1 112:1 113:1 114:1 115:0 116:0 117:0 118:0 119:0 120:0 121:1 122:1 123:0 124:0 125:0 126:0 127:0 128:0 129:0 130:0 
1 0 0 0 0 0 0 0.2306548526076088 1:0 2:1 3:1 4:1 5:1 6:0 7:0 8:0 9:0 10:0 11:1 12:1 13:1 14:1 15:1 16:1 17:0 18:0 19:0 20:1 21:1 22:1 23:1 24:1 25:1 26:1 27:0 28:0 29:0 30:1 31:1 32:1 33:1 34:1 35:1 36:0 37:0 38:0 39:0 40:1 41:1 42:1 43:1 44:1 45:1 46:0 47:0 48:0 49:0 50:1 51:1 52:1 53:1 54:1 55:1 56:1 57:0 58:0 59:0 60:1 61:1 62:1 63:1 64:1 65:1 66:1 67:0 68:0 69:0 70:0 71:0 72:1 73:1 74:1 75:1 76:1 77:0 78:0 79:0 80:0 81:0 82:1 83:1 84:1 85:1 86:1 87:0 88:0 89:0 90:0 91:1 92:1 93:1 94:1 95:1 96:1 97:0 98:0 99:0 100:1 101:1 102:1 103:1 104:1 105:1 106:0 107:0 108:0 109:0 110:1 111:1 112:1 113:1 114:1 115:0 116:0 117:0 118:0 119:0 120:0 121:0 122:1 123:0 124:0 125:0 126:0 127:0 128:0 129:0 130:0 
0.3716098422706169 0 0 0 0 0 0 0 1:0 2:0 3:1 4:0 5:0 6:0 7:0 8:0 9:0 10:0 11:1 12:1 13:1 14:1 15:1 16:1 17:0 18:0 19:0 20:1 21:1 22:1 23:1 24:1 25:1 26:1 27:0 28:0 29:0 30:1 31:1 32:1 33:1 34:1 35:0 36:0 37:0 38:0 39:0 40:1 41:1 42:1 43:1 44:1 45:1 46:0 47:0 48:0 49:0 50:1 51:1 52:1 53:1 54:1 55:1 56:0 57:0 58:0 59:0 60:0 61:1 62:1 63:1 64:1 65:1 66:1 67:0 68:0 69:0 70:0 71:0 72:0 73:0 74:1 75:1 76:1 77:0 78:0 79:0 80:0 81:0 82:0 83:0 84:1 85:1 86:1 87:0 88:0 89:0 90:0 91:0 92:0 93:1 94:1 95:1 96:1 97:0 98:0 99:0 100:0 101:1 102:1 103:1 104:1 105:1 106:0 107:0 108:0 109:0 110:1 111:1 112:1 113:1 114:1 115:0 116:0 117:0 118:0 119:0 120:0 121:1 122:1 123:0 124:0 125:0 126:0 127:0 128:0 129:0 130:0 
1 0 0 1 0 0 0 0 1:0 2:1 3:1 4:1 5:0 6:0 7:0 8:0 9:0 10:0 11:1 12:1 13:1 14:1 15:1 16:1 17:0 18:0 19:0 20:1 21:1 22:1 23:1 24:1 25:1 26:1 27:0 28:0 29:0 30:1 31:1 32:1 33:1 34:1 35:1 36:1 37:0 38:0 39:0 40:1 41:1 42:1 43:1 44:1 45:1 46:1 47:0 48:0 49:0 50:1 51:1 52:1 53:1 54:1 55:1 56:1 57:0 58:0 59:0 60:1 61:1 62:1 63:1 64:1 65:1 66:1 67:0 68:0 69:0 70:0 71:0 72:1 73:1 74:1 75:1 76:1 77:1 78:0 79:0 80:0 81:0 82:1 83:1 84:1 85:1 86:1 87:1 88:0 89:0 90:0 91:1 92:1 93:1 94:1 95:1 96:1 97:0 98:0 99:0 100:1 101:1 102:1 103:1 104:1 105:1 106:1 107:0 108:0 109:0 110:0 111:1 112:1 113:1 114:1 115:1 116:0 117:0 118:0 119:0 120:0 121:0 122:1 123:0 124:0 125:0 126:0 127:0 128:0 129:0 130:0 
0 0 0 0 0 0 0.1728506754200279 0 1:0 2:1 3:0 4:0 5:0 6:0 7:0 8:0 9:0 10:0 11:1 12:1 13:1 14:1 15:1 16:1 17:0 18:0 19:0 20:0 21:1 22:1 23:1 24:1 25:1 26:1 27:0 28:0 29:0 30:0 31:1 32:1 33:1 34:1 35:1 36:0 37:0 38:0 39:0 40:1 41:1 42:1 43:1 44:1 45:1 46:0 47:0 48:0 49:0 50:1 51:1 52:1 53:1 54:1 55:1 56:1 57:0 58:0 59:0 60:0 61:1 62:1 63:1 64:1 65:1 66:1 67:0 68:0 69:0 70:0 71:0 72:0 73:1 74:1 75:1 76:1 77:1 78:0 79:0 80:0 81:0 82:1 83:1 84:1 85:1 86:1 87:1 88:0 89:0 90:0 91:1 92:1 93:1 94:1 95:1 96:1 97:0 98:0 99:0 100:0 101:1 102:1 103:1 104:1 105:1 106:1 107:0 108:0 109:0 110:0 111:1 112:1 113:1 114:1 115:0 116:0 117:0 118:0 119:0 120:0 121:0 122:1 123:1 124:0 125:0 126:0 127:0 128:0 129:0 130:0 
0 0 0.3371345302940305 0 0 0 0 0 1:1 2:1 3:1 4:1 5:1 6:0 7:0 8:0 9:0 10:1 11:1 12:1 13:1 14:1 15:1 16:0 17:0 18:0 19:0 20:1 21:1 22:1 23:1 24:1 25:0 26:0 27:0 28:0 29:0 30:1 31:1 32:1 33:0 34:0 35:0 36:0 37:0 38:0 39:0 40:1 41:1 42:1 43:1 44:0 45:0 46:0 47:0 48:0 49:0 50:1 51:1 52:1 53:1 54:1 55:1 56:0 57:0 58:0 59:0 60:1 61:1 62:1 63:1 64:1 65:1 66:1 67:0 68:0 69:0 70:0 71:0 72:0 73:1 74:1 75:1 76:1 77:0 78:0 79:0 80:0 81:0 82:0 83:0 84:1 85:1 86:1 87:0 88:0 89:0 90:0 91:0 92:0 93:0 94:1 95:1 96:1 97:0 98:0 99:0 100:0 101:0 102:1 103:1 104:1 105:1 106:1 107:0 108:0 109:0 110:1 111:1 112:1 113:1 114:1 115:1 116:0 117:0 118:0 119:0 120:1 121:1 122:1 123:1 124:0 125:0 126:0 127:0 128:0 129:0 130:0 
0.9553781285224845 0 0 0 0 0 0 0 1:1 2:1 3:1 4:1 5:1 6:1 7:0 8:0 9:0 10:0 11:1 12:1 13:1 14:1 15:1 16:1 17:0 18:0 19:0 20:1 21:1 22:1 23:1 24:1 25:1 26:0 27:0 28:0 29:0 30:1 31:1 32:1 33:1 34:1 35:0 36:0 37:0 38:0 39:0 40:1 41:1 42:1 43:1 44:1 45:1 46:0 47:0 48:0 49:0 50:1 51:1 52:1 53:1 54:1 55:1 56:1 57:0 58:0 59:0 60:1 61:1 62:1 63:1 64:1 65:1 66:1 67:0 68:0 69:0 70:0 71:0 72:0 73:0 74:1 75:1 76:1 77:0 78:0 79:0 80:0 81:0 82:0 83:0 84:0 85:1 86:1 87:0 88:0 89:0 90:0 91:0 92:0 93:0 94:1 95:1 96:1 97:0 98:0 99:0 100:0 101:0 102:0 103:1 104:1 105:1 106:1 107:0 108:0 109:0 110:0 111:1 112:1 113:1 114:1 115:1 116:1 117:0 118:0 119:0 120:0 121:1 122:1 123:1 124:1 125:0 126:0 127:0 128:0 129:0 130:0 
0 1 0 0 0 0 0 0 1:0 2:1 3:1 4:1 5:1 6:1 7:1 8:0 9:0 10:0 11:1 12:1 13:1 14:1 15:1 16:1 17:1 18:0 19:0 20:0 21:1 22:1 23:1 24:1 25:1 26:1 27:1 28:0 29:0 30:1 31:1 32:1 33:1 34:1 35:1 36:1 37:0 38:0 39:0 40:1 41:1 42:1 43:1 44:1 45:1 46:1 47:1 48:0 49:0 50:1 51:1 52:1 53:1 54:1 55:1 56:1 57:1 58:1 59:0 60:0 61:1 62:1 63:1 64:1 65:1 66:1 67:1 68:1 69:0 70:0 71:0 72:0 73:1 74:1 75:1 76:1 77:1 78:1 79:0 80:0 81:0 82:1 83:1 84:1 85:1 86:1 87:1 88:1 89:0 90:0 91:1 92:1 93:1 94:1 95:1 96:1 97:1 98:0 99:0 100:0 101:1 102:1 103:1 104:1 105:1 106:1 107:1 108:0 109:0 110:0 111:1 112:1 113:1 114:1 115:1 116:1 117:0 118:0 119:0 120:0 121:1 122:1 123:1 124:1 125:1 126:0 127:0 128:0 129:0 130:0 
0 0 0 0 0 0 0.0496051883446366 0 1:0 2:0 3:1 4:0 5:0 6:0 7:0 8:0 9:0 10:1 11:1 12:1 13:1 14:1 15:1 16:0 17:0 18:0 19:0 20:1 21:1 22:1 23:1 24:1 25:1 26:0 27:0 28:0 29:0 30:1 31:1 32:1 33:0 34:0 35:0 36:0 37:0 38:0 39:0 40:1 41:1 42:1 43:1 44:1 45:0 46:0 47:0 48:0 49:0 50:1 51:1 52:1 53:1 54:1 55:1 56:0 57:0 58:0 59:0 60:1 61:1 62:1 63:1 64:1 65:1 66:1 67:0 68:0 69:0 70:0 71:0 72:0 73:0 74:1 75:1 76:1 77:0 78:0 79:0 80:0 81:0 82:0 83:0 84:1 85:1 86:1 87:0 88:0 89:0 90:0 91:0 92:0 93:1 94:1 95:1 96:1 97:0 98:0 99:0 100:1 101:1 102:1 103:1 104:1 105:1 106:0 107:0 108:0 109:0 110:1 111:1 112:1 113:1 114:1 115:0 116:0 117:0 118:0 119:0 120:0 121:1 122:0 123:0 124:0 125:0 126:0 127:0 128:0 129:0 130:0 
0 0 1 0 0 0 0 0 1:0 2:0 3:1 4:1 5:0 6:0 7:0 8:0 9:0 10:0 11:1 12:1 13:1 14:1 15:1 16:1 17:1 18:0 19:0 20:0 21:1 22:1 23:1 24:1 25:1 26:1 27:1 28:0 29:0 30:0 31:1 32:1 33:1 34:1 35:1 36:1 37:0 38:0 39:0 40:0 41:1 42:1 43:1 44:1 45:1 46:1 47:0 48:0 49:0 50:1 51:1 52:1 53:1 54:1 55:1 56:1 57:1 58:0 59:0 60:0 61:1 62:1 63:1 64:1 65:1 66:1 67:1 68:0 69:0 70:0 71:0 72:1 73:1 74:1 75:1 76:1 77:1 78:0 79:0 80:0 81:0 82:0 83:1 84:1 85:1 86:1 87:1 88:1 89:0 90:0 91:0 92:0 93:1 94:1 95:1 96:1 97:1 98:0 99:0 100:0 101:1 102:1 103:1 104:1 105:1 106:1 107:0 108:0 109:0 110:1 111:1 112:1 113:1 114:1 115:1 116:0 117:0 118:0 119:0 120:0 121:1 122:1 123:1 124:1 125:0 126:0 127:0 128:0 129:0 130:0 
0 0 0.6890488067935459 0 0 0 0 0 1:0 2:0 3:1 4:1 5:0 6:0 7:0 8:0 9:0 10:0 11:1 12:1 13:1 14:1 15:1 16:1 17:0 18:0 19:0 20:0 21:1 22:1 23:1 24:1 25:1 26:1 27:0 28:0 29:0 30:1 31:1 32:1 33:1 34:0 35:0 36:0 37:0 38:0 39:0 40:1 41:1 42:1 43:1 44:1 45:1 46:0 47:0 48:0 49:0 50:1 51:1 52:1 53:1 54:1 55:1 56:1 57:0 58:0 59:0 60:0 61:1 62:1 63:1 64:1 65:1 66:1 67:0 68:0 69:0 70:0 71:0 72:0 73:0 74:1 75:1 76:1 77:1 78:0 79:0 80:0 81:0 82:0 83:0 84:1 85:1 86:1 87:1 88:0 89:0 90:0 91:0 92:0 93:0 94:1 95:1 96:1 97:0 98:0 99:0 100:0 101:1 102:1 103:1 104:1 105:1 106:0 107:0 108:0 109:0 110:0 111:1 112:1 113:1 114:1 115:0 116:0 117:0 118:0 119:0 120:0 121:0 122:1 123:0 124:0 125:0 126:0 127:0 128:0 129:0 130:0 
0.4733070817975849 0 0 0 0 0 0 0 1:0 2:0 3:1 4:1 5:0 6:0 7:0 8:0 9:0 10:0 11:1 12:1 13:1 14:1 15:1 16:1 17:1 18:0 19:0 20:0 21:1 22:1 23:1 24:1 25:1 26:1 27:1 28:0 29:0 30:0 31:1 32:1 33:1 34:1 35:1 36:1 37:0 38:0 39:0 40:1 41:1 42:1 43:1 44:1 45:1 46:1 47:0 48:0 49:0 50:1 51:1 52:1 53:1 54:1 55:1 56:1 57:1 58:0 59:0 60:0 61:1 62:1 63:1 64:1 65:1 66:1 67:1 68:1 69:0 70:0 71:0 72:1 73:1 74:1 75:1 76:1 77:1 78:1 79:0 80:0 81:0 82:0 83:1 84:1 85:1 86:1 87:1 88:1 89:0 90:0 91:0 92:1 93:1 94:1 95:1 96:1 97:1 98:0 99:0 100:0 101:1 102:1 103:1 104:1 105:1 106:1 107:1 108:0 109:0 110:0 111:1 112:1 113:1 114:1 115:1 116:1 117:0 118:0 119:0 120:0 121:1 122:1 123:1 124:1 125:1 126:0 127:0 128:0 129:0 130:0 
0.7143740336041005 0 0 1 0 0 0 0 1:0 2:1 3:1 4:1 5:1 6:1 7:0 8:0 9:0 10:0 11:1 12:1 13:1 14:1 15:1 16:1 17:0 18:0 19:0 20:0 21:1 22:1 23:1 24:1 25:1 26:1 27:0 28:0 29:0 30:1 31:1 32:1 33:1 34:1 35:1 36:1 37:0 38:0 39:0 40:1 41:1 42:1 43:1 44:1 45:1 46:1 47:0 48:0 49:0 50:0 51:1 52:1 53:1 54:1 55:1 56:1 57:1 58:0 59:0 60:0 61:1 62:1 63:1 64:1 65:1 66:1 67:1 68:0 69:0 70:0 71:0 72:0 73:1 74:1 75:1 76:1 77:1 78:0 79:0 80:0 81:0 82:1 83:1 84:1 85:1 86:1 87:1 88:0 89:0 90:0 91:1 92:1 93:1 94:1 95:1 96:1 97:1 98:0 99:0 100:0 101:1 102:1 103:1 104:1 105:1 106:1 107:0 108:0 109:0 110:0 111:1 112:1 113:1 114:1 115:0 116:0 117:0 118:0 119:0 120:0 121:0 122:0 123:1 124:0 125:0 126:0 127:0 128:0 129:0 130:0 
0 0 0 0 0 1 0 0 1:1 2:1 3:1 4:1 5:1 6:1 7:0 8:0 9:0 10:1 11:1 12:1 13:1 14:1 15:1 16:1 17:0 18:0 19:0 20:1 21:1 22:1 23:1 24:1 25:1 26:1 27:0 28:0 29:0 30:1 31:1 32:1 33:1 34:1 35:1 36:0 37:0 38:0 39:0 40:1 41:1 42:1 43:1 44:1 45:1 46:0 47:0 48:0 49:0 50:1 51:1 52:1 53:1 54:1 55:1 56:1 57:0 58:0 59:0 60:1 61:1 62:1 63:1 64:1 65:1 66:1 67:0 68:0 69:0 70:0 71:0 72:0 73:1 74:1 75:1 76:1 77:1 78:0 79:0 80:0 81:0 82:0 83:0 84:1 85:1 86:1 87:1 88:0 89:0 90:0 91:0 92:0 93:1 94:1 95:1 96:1 97:1 98:0 99:0 100:1 101:1 102:1 103:1 104:1 105:1 106:1 107:0 108:0 109:0 110:1 111:1 112:1 113:1 114:1 115:1 116:1 117:0 118:0 119:0 120:1 121:1 122:1 123:1 124:1 125:1 126:0 127:0 128:0 129:0 130:0 
0 0 1 0 0 0 0 0 1:1 2:1 3:1 4:1 5:1 6:1 7:0 8:0 9:0 10:0 11:1 12:1 13:1 14:1 15:1 16:1 17:0 18:0 19:0 20:1 21:1 22:1 23:1 24:1 25:1 26:1 27:0 28:0 29:0 30:1 31:1 32:1 33:1 34:1 35:1 36:1 37:0 38:0 39:0 40:1 41:1 42:1 43:1 44:1 45:1 46:1 47:0 48:0 49:0 50:1 51:1 52:1 53:1 54:1 55:1 56:1 57:1 58:0 59:0 60:1 61:1 62:1 63:1 64:1 65:1 66:1 67:1 68:0 69:0 70:0 71:0 72:1 73:1 74:1 75:1 76:1 77:1 78:0 79:0 80:0 81:0 82:1 83:1 84:1 85:1 86:1 87:1 88:0 89:0 90:0 91:1 92:1 93:1 94:1 95:1 96:1 97:0 98:0 99:0 100:1 101:1 102:1 103:1 104:1 105:1 106:1 107:0 108:0 109:0 110:0 111:1 112:1 113:1 114:1 115:0 116:0 117:0 118:0 119:0 120:0 121:0 122:1 123:0 124:0 125:0 126:0 127:0 128:0 129:0 130:0 
0.170839670800139 0 0 0 0 0 0 0 1:0 2:1 3:1 4:0 5:0 6:0 7:0 8:0 9:0 10:0 11:1 12:1 13:1 14:1 15:1 16:1 17:0 18:0 19:0 20:1 21:1 22:1 23:1 24:1 25:1 26:1 27:0 28:0 29:0 30:1 31:1 32:1 33:1 34:1 35:1 36:0 37:0 38:0 39:0 40:1 41:1 42:1 43:1 44:1 45:1 46:0 47:0 48:0 49:0 50:1 51:1 52:1 53:1 54:1 55:1 56:1 57:0 58:0 59:0 60:1 61:1 62:1 63:1 64:1 65:1 66:1 67:0 68:0 69:0 70:0 71:0 72:1 73:1 74:1 75:1 76:1 77:0 78:0 79:0 80:0 81:0 82:1 83:1 84:1 85:1 86:1 87:0 88:0 89:0 90:0 91:1 92:1 93:1 94:1 95:1 96:1 97:0 98:0 99:0 100:1 101:1 102:1 103:1 104:1 105:1 106:0 107:0 108:0 109:0 110:1 111:1 112:1 113:1 114:1 115:0 116:0 117:0 118:0 119:0 120:0 121:0 122:1 123:0 124:0 125:0 126:0 127:0 128:0 129:0 130:0 
0 0 0 0 0 0.3406082634851669 0 0 1:1 2:1 3:1 4:1 5:1 6:1 7:0 8:0 9:0 10:0 11:1 12:1 13:1 14:1 15:1 16:1 17:0 18:0 19:0 20:0 21:1 22:1 23:1 24:1 25:1 26:1 27:0 28:0 29:0 30:0 31:1 32:1 33:1 34:1 35:1 36:0 37:0 38:0 39:0 40:0 41:1 42:1 43:1 44:1 45:1 46:1 47:0 48:0 49:0 50:1 51:1 52:1 53:1 54:1 55:1 56:1 57:1 58:0 59:0 60:0 61:1 62:1 63:1 64:1 65:1 66:1 67:1 68:0 69:0 70:0 71:0 72:0 73:0 74:1 75:1 76:1 77:1 78:0 79:0 80:0 81:0 82:0 83:0 84:1 85:1 86:1 87:1 88:0 89:0 90:0 91:0 92:0 93:1 94:1 95:1 96:1 97:1 98:0 99:0 100:0 101:1 102:1 103:1 104:1 105:1 106:1 107:1 108:0 109:0 110:1 111:1 112:1 113:1 114:1 115:1 116:1 117:0 118:0 119:0 120:0 121:1 122:1 123:1 124:1 125:1 126:0 127:0 128:0 129:0 130:0 
0 0 0.01255809318592168 0 0 0 0 0 1:0 2:1 3:1 4:0 5:0 6:0 7:0 8:0 9:0 10:1 11:1 12:1 13:1 14:1 15:1 16:1 17:0 18:0 19:0 20:1 21:1 22:1 23:1 24:1 25:1 26:0 27:0 28:0 29:0 30:1 31:1 32:1 33:1 34:0 35:0 36:0 37:0 38:0 39:0 40:1 41:1 42:1 43:1 44:0 45:0 46:0 47:0 48:0 49:0 50:1 51:1 52:1 53:1 54:1 55:1 56:0 57:0 58:0 59:0 60:1 61:1 62:1 63:1 64:1 65:1 66:1 67:0 68:0 69:0 70:0 71:0 72:0 73:1 74:1 75:1 76:1 77:0 78:0 79:0 80:0 81:0 82:0 83:0 84:1 85:1 86:1 87:0 88:0 89:0 90:0 91:0 92:0 93:0 94:1 95:1 96:1 97:0 98:0 99:0 100:0 101:0 102:0 103:1 104:1 105:1 106:1 107:0 108:0 109:0 110:1 111:1 112:1 113:1 114:1 115:1 116:1 117:0 118:0 119:0 120:1 121:1 122:1 123:1 124:1 125:0 126:0 127:0 128:0 129:0 130:0 
0 0 0 0 0 0 0.09757945886111297 0 1:0 2:1 3:0 4:0 5:0 6:0 7:0 8:0 9:0 10:0 11:1 12:1 13:1 14:1 15:1 16:1 17:0 18:0 19:0 20:1 21:1 22:1 23:1 24:1 25:1 26:1 27:0 28:0 29:0 30:1 31:1 32:1 33:1 34:1 35:0 36:0 37:0 38:0 39:0 40:1 41:1 42:1 43:1 44:1 45:1 46:0 47:0 48:0 49:0 50:1 51:1 52:1 53:1 54:1 55:1 56:1 57:0 58:0 59:0 60:1 61:1 62:1 63:1 64:1 65:1 66:1 67:0 68:0 69:0 70:0 71:0 72:1 73:1 74:1 75:1 76:1 77:0 78:0 79:0 80:0 81:0 82:1 83:1 84:1 85:1 86:1 87:0 88:0 89:0 90:0 91:1 92:1 93:1 94:1 95:1 96:1 97:0 98:0 99:0 100:1 101:1 102:1 103:1 104:1 105:1 106:0 107:0 108:0 109:0 110:1 111:1 112:1 113:1 114:1 115:0 116:0 117:0 118:0 119:0 120:0 121:0 122:1 123:0 124:0 125:0 126:0 127:0 128:0 129:0 130:0 
0 0 0 0 0 0 0 0.2463122719487335 1:0 2:1 3:0 4:0 5:0 6:0 7:0 8:0 9:0 10:0 11:1 12:1 13:1 14:1 15:1 16:1 17:0 18:0 19:0 20:1 21:1 22:1 23:1 24:1 25:1 26:1 27:0 28:0 29:0 30:1 31:1 32:1 33:1 34:1 35:0 36:0 37:0 38:0 39:0 40:1 41:1 42:1 43:1 44:1 45:1 46:0 47:0 48:0 49:0 50:1 51:1 52:1 53:1 54:1 55:1 56:1 57:0 58:0 59:0 60:1 61:1 62:1 63:1 64:1 65:1 66:1 67:0 68:0 69:0 70:0 71:0 72:1 73:1 74:1 75:1 76:1 77:0 78:0 79:0 80:0 81:0 82:1 83:1 84:1 85:1 86:1 87:0 88:0 89:0 90:0 91:1 92:1 93:1 94:1 95:1 96:1 97:0 98:0 99:0 100:1 101:1 102:1 103:1 104:1 105:1 106:0 107:0 108:0 109:0 110:1 111:1 112:1 113:1 114:1 115:0 116:0 117:0 118:0 119:0 120:0 121:1 122:1 123:0 124:0 125:0 126:0 127:0 128:0 129:0 130:0 
0 1 0.8201024939636447 1 0.6905851655207109 0 0.2990270177821769 0 1:0 2:1 3:1 4:0 5:0 6:0 7:0 8:0 9:0 10:0 11:1 12:1 13:1 14:1 15:1 16:1 17:1 18:0 19:0 20:0 21:1 22:1 23:1 24:1 25:1 26:1 27:1 28:0 29:0 30:0 31:1 32:1 33:1 34:1 35:1 36:1 37:0 38:0 39:0 40:1 41:1 42:1 43:1 44:1 45:1 46:1 47:0 48:0 49:0 50:1 51:1 52:1 53:1 54:1 55:1 56:1 57:1 58:0 59:0 60:1 61:1 62:1 63:1 64:1 65:1 66:1 67:1 68:0 69:0 70:0 71:0 72:1 73:1 74:1 75:1 76:1 77:1 78:0 79:0 80:0 81:0 82:1 83:1 84:1 85:1 86:1 87:1 88:0 89:0 90:0 91:1 92:1 93:1 94:1 95:1 96:1 97:1 98:0 99:0 100:0 101:1 102:1 103:1 104:1 105:1 106:1 107:1 108:0 109:0 110:0 111:1 112:1 113:1 114:1 115:1 116:1 117:0 118:0 119:0 120:0 121:0 122:1 123:1 124:1 125:1 126:0 127:0 128:0 129:0 130:0 
0 1 1 1 1 0 0.4802170949339989 0.7284616676815667 1:0 2:1 3:1 4:1 5:1 6:0 7:0 8:0 9:0 10:0 11:1 12:1 13:1 14:1 15:1 16:1 17:0 18:0 19:0 20:1 21:1 22:1 23:1 24:1 25:1 26:1 27:0 28:0 29:0 30:1 31:1 32:1 33:1 34:1 35:1 36:1 37:0 38:0 39:0 40:1 41:1 42:1 43:1 44:1 45:1 46:1 47:0 48:0 49:0 50:1 51:1 52:1 53:1 54:1 55:1 56:1 57:1 58:0 59:0 60:1 61:1 62:1 63:1 64:1 65:1 66:1 67:1 68:0 69:0 70:0 71:1 72:1 73:1 74:1 75:1 76:1 77:1 78:0 79:0 80:0 81:1 82:1 83:1 84:1 85:1 86:1 87:1 88:0 89:0 90:0 91:1 92:1 93:1 94:1 95:1 96:1 97:0 98:0 99:0 100:1 101:1 102:1 103:1 104:1 105:1 106:1 107:0 108:0 109:0 110:0 111:1 112:1 113:1 114:1 115:1 116:0 117:0 118:0 119:0 120:0 121:0 122:1 123:1 124:0 125:0 126:0 127:0 128:0 129:0 130:0 
0 0 0 0.1497517927399694 0 0 0 0 1:0 2:0 3:1 4:1 5:0 6:0 7:0 8:0 9:0 10:1 11:1 12:1 13:1 14:1 15:1 16:1 17:0 18:0 19:0 20:1 21:1 22:1 23:1 24:1 25:1 26:0 27:0 28:0 29:0 30:1 31:1 32:1 33:0 34:0 35:0 36:0 37:0 38:0 39:0 40:1 41:1 42:1 43:1 44:1 45:0 46:0 47:0 48:0 49:0 50:1 51:1 52:1 53:1 54:1 55:1 56:1 57:0 58:0 59:0 60:1 61:1 62:1 63:1 64:1 65:1 66:1 67:0 68:0 69:0 70:0 71:0 72:0 73:0 74:1 75:1 76:1 77:1 78:0 79:0 80:0 81:0 82:0 83:0 84:0 85:1 86:1 87:1 88:0 89:0 90:0 91:0 92:0 93:0 94:0 95:1 96:1 97:1 98:0 99:0 100:0 101:0 102:0 103:1 104:1 105:1 106:1 107:1 108:0 109:0 110:1 111:1 112:1 113:1 114:1 115:1 116:1 117:0 118:0 119:0 120:1 121:1 122:1 123:1 124:1 125:1 126:0 127:0 128:0 129:0 130:0 
0 0.8981787365915939 0 0 0.7906094124410651 0 0 0 1:0 2:0 3:0 4:0 5:1 6:0 7:0 8:0 9:0 10:0 11:1 12:1 13:1 14:1 15:1 16:1 17:0 18:0 19:0 20:0 21:1 22:1 23:1 24:1 25:1 26:0 27:0 28:0 29:0 30:1 31:1 32:1 33:0 34:0 35:0 36:0 37:0 38:0 39:0 40:1 41:1 42:1 43:1 44:1 45:0 46:0 47:0 48:0 49:0 50:1 51:1 52:1 53:1 54:1 55:1 56:1 57:0 58:0 59:0 60:1 61:1 62:1 63:1 64:1 65:1 66:1 67:1 68:0 69:0 70:0 71:0 72:0 73:0 74:0 75:1 76:1 77:1 78:0 79:0 80:0 81:0 82:0 83:0 84:0 85:1 86:1 87:1 88:0 89:0 90:0 91:0 92:0 93:0 94:0 95:1 96:1 97:1 98:0 99:0 100:0 101:0 102:0 103:0 104:1 105:1 106:1 107:1 108:0 109:0 110:0 111:1 112:1 113:1 114:1 115:1 116:1 117:0 118:0 119:0 120:1 121:1 122:1 123:1 124:1 125:1 126:0 127:0 128:0 129:0 130:0 
0.1826072877435457 0 0 0 0 0 0 0.2717593613489673 1:1 2:1 3:1 4:1 5:1 6:0 7:0 8:0 9:0 10:1 11:1 12:1 13:1 14:1 15:1 16:0 17:0 18:0 19:0 20:1 21:1 22:1 23:1 24:1 25:0 26:0 27:0 28:0 29:0 30:1 31:1 32:1 33:0 34:0 35:0 36:0 37:0 38:0 39:0 40:1 41:1 42:1 43:1 44:0 45:0 46:0 47:0 48:0 49:0 50:1 51:1 52:1 53:1 54:1 55:1 56:0 57:0 58:0 59:0 60:0 61:0 62:1 63:1 64:1 65:1 66:1 67:0 68:0 69:0 70:0 71:0 72:0 73:0 74:1 75:1 76:1 77:0 78:0 79:0 80:0 81:0 82:0 83:0 84:1 85:1 86:1 87:0 88:0 89:0 90:0 91:0 92:0 93:1 94:1 95:1 96:1 97:0 98:0 99:0 100:1 101:1 102:1 103:1 104:1 105:1 106:1 107:0 108:0 109:0 110:1 111:1 112:1 113:1 114:1 115:0 116:0 117:0 118:0 119:0 120:0 121:1 122:0 123:0 124:0 125:0 126:0 127:0 128:0 129:0 130:0 
0 0.4249285483174373 0 0 0 0 0 0 1:1 2:1 3:1 4:1 5:1 6:1 7:0 8:0 9:0 10:1 11:1 12:1 13:1 14:1 15:1 16:1 17:0 18:0 19:0 20:1 21:1 22:1 23:0 24:0 25:0 26:0 27:0 28:0 29:0 30:1 31:1 32:1 33:1 34:0 35:0 36:0 37:0 38:0 39:0 40:1 41:1 42:1 43:1 44:1 45:1 46:1 47:0 48:0 49:0 50:1 51:1 52:1 53:1 54:1 55:1 56:1 57:1 58:0 59:0 60:0 61:0 62:0 63:0 64:0 65:1 66:1 67:1 68:0 69:0 70:0 71:0 72:0 73:0 74:0 75:0 76:1 77:1 78:1 79:0 80:0 81:0 82:0 83:0 84:0 85:0 86:1 87:1 88:1 89:0 90:0 91:0 92:0 93:0 94:0 95:1 96:1 97:1 98:0 99:0 100:0 101:0 102:0 103:1 104:1 105:1 106:1 107:1 108:0 109:0 110:0 111:1 112:1 113:1 114:1 115:1 116:1 117:0 118:0 119:0 120:0 121:1 122:1 123:1 124:1 125:0 126:0 127:0 128:0 129:0 130:0 
0 0 0.3815155255242956 0 0 0 0 0 1:1 2:1 3:1 4:1 5:1 6:1 7:0 8:0 9:0 10:1 11:1 12:1 13:1 14:1 15:1 16:0 17:0 18:0 19:0 20:1 21:1 22:1 23:0 24:0 25:0 26:0 27:0 28:0 29:0 30:1 31:1 32:1 33:1 34:0 35:0 36:0 37:0 38:0 39:0 40:1 41:1 42:1 43:1 44:1 45:1 46:0 47:0 48:0 49:0 50:1 51:1 52:1 53:1 54:1 55:1 56:1 57:1 58:0 59:0 60:0 61:0 62:0 63:0 64:0 65:1 66:1 67:1 68:0 69:0 70:0 71:0 72:0 73:0 74:0 75:1 76:1 77:1 78:0 79:0 80:0 81:0 82:0 83:0 84:0 85:1 86:1 87:1 88:1 89:0 90:0 91:0 92:0 93:0 94:1 95:1 96:1 97:1 98:0 99:0 100:0 101:0 102:0 103:1 104:1 105:1 106:1 107:0 108:0 109:0 110:0 111:1 112:1 113:1 114:1 115:1 116:0 117:0 118:0 119:0 120:0 121:0 122:1 123:1 124:0 125:0 126:0 127:0 128:0 129:0 130:0 
0 0 0 0 0 0.08691383979559254 0 0 1:1 2:1 3:1 4:1 5:1 6:1 7:1 8:0 9:0 10:0 11:1 12:1 13:1 14:1 15:1 16:1 17:1 18:0 19:0 20:0 21:1 22:1 23:1 24:0 25:0 26:0 27:0 28:0 29:0 30:0 31:1 32:1 33:1 34:1 35:0 36:0 37:0 38:0 39:0 40:0 41:1 42:1 43:1 44:1 45:1 46:1 47:0 48:0 49:0 50:0 51:1 52:1 53:1 54:1 55:1 56:1 57:1 58:0 59:0 60:0 61:0 62:0 63:0 64:1 65:1 66:1 67:1 68:0 69:0 70:0 71:0 72:0 73:0 74:0 75:0 76:1 77:1 78:1 79:0 80:0 81:0 82:0 83:0 84:0 85:0 86:1 87:1 88:1 89:0 90:0 91:0 92:0 93:0 94:0 95:1 96:1 97:1 98:0 99:0 100:0 101:0 102:1 103:1 104:1 105:1 106:1 107:1 108:0 109:0 110:1 111:1 112:1 113:1 114:1 115:1 116:1 117:0 118:0 119:0 120:0 121:1 122:1 123:1 124:0 125:0 126:0 127:0 128:0 129:0 130:0 
0 0 0 0 0 0.6477490929956464 0 0.06697652620141865 1:0 2:1 3:1 4:1 5:1 6:1 7:1 8:0 9:0 10:0 11:1 12:1 13:1 14:1 15:1 16:1 17:1 18:0 19:0 20:0 21:1 22:1 23:1 24:0 25:0 26:0 27:0 28:0 29:0 30:0 31:1 32:1 33:1 34:0 35:0 36:0 37:0 38:0 39:0 40:0 41:1 42:1 43:1 44:1 45:1 46:0 47:0 48:0 49:0 50:0 51:1 52:1 53:1 54:1 55:1 56:1 57:0 58:0 59:0 60:0 61:0 62:0 63:0 64:1 65:1 66:1 67:1 68:0 69:0 70:0 71:0 72:0 73:0 74:0 75:1 76:1 77:1 78:0 79:0 80:0 81:0 82:0 83:0 84:0 85:0 86:1 87:1 88:0 89:0 90:0 91:0 92:0 93:0 94:0 95:1 96:1 97:1 98:0 99:0 100:0 101:0 102:0 103:1 104:1 105:1 106:1 107:1 108:0 109:0 110:1 111:1 112:1 113:1 114:1 115:1 116:1 117:0 118:0 119:0 120:0 121:1 122:1 123:1 124:1 125:0 126:0 127:0 128:0 129:0 130:0 
0 0 0 0 0 1 0 0 1:0 2:1 3:1 4:1 5:1 6:1 7:0 8:0 9:0 10:0 11:1 12:1 13:1 14:1 15:1 16:1 17:1 18:0 19:0 20:0 21:1 22:1 23:1 24:1 25:1 26:1 27:0 28:0 29:0 30:0 31:1 32:1 33:1 34:0 35:0 36:0 37:0 38:0 39:0 40:0 41:1 42:1 43:1 44:1 45:1 46:0 47:0 48:0 49:0 50:1 51:1 52:1 53:1 54:1 55:1 56:1 57:0 58:0 59:0 60:0 61:0 62:1 63:1 64:1 65:1 66:1 67:1 68:0 69:0 70:0 71:0 72:0 73:0 74:0 75:1 76:1 77:1 78:0 79:0 80:0 81:0 82:0 83:0 84:0 85:1 86:1 87:1 88:0 89:0 90:0 91:0 92:0 93:0 94:0 95:1 96:1 97:1 98:0 99:0 100:0 101:0 102:0 103:0 104:1 105:1 106:1 107:1 108:0 109:0 110:0 111:1 112:1 113:1 114:1 115:1 116:1 117:0 118:0 119:0 120:0 121:1 122:1 123:1 124:1 125:0 126:0 127:0 128:0 129:0 130:0 
0 0 0.07645275509387611 0 0 0 0 0 1:1 2:1 3:1 4:1 5:1 6:1 7:1 8:0 9:0 10:0 11:1 12:1 13:1 14:1 15:1 16:1 17:1 18:0 19:0 20:1 21:1 22:1 23:1 24:0 25:0 26:0 27:0 28:0 29:0 30:1 31:1 32:1 33:1 34:0 35:0 36:0 37:0 38:0 39:0 40:1 41:1 42:1 43:1 44:1 45:1 46:1 47:0 48:0 49:0 50:0 51:1 52:1 53:1 54:1 55:1 56:1 57:1 58:0 59:0 60:0 61:0 62:0 63:0 64:1 65:1 66:1 67:1 68:1 69:0 70:0 71:0 72:0 73:0 74:0 75:1 76:1 77:1 78:1 79:0 80:0 81:0 82:0 83:0 84:0 85:1 86:1 87:1 88:1 89:0 90:0 91:0 92:0 93:0 94:0 95:1 96:1 97:1 98:1 99:0 100:0 101:0 102:0 103:1 104:1 105:1 106:1 107:1 108:0 109:0 110:0 111:1 112:1 113:1 114:1 115:1 116:1 117:0 118:0 119:0 120:0 121:0 122:1 123:1 124:1 125:0 126:0 127:0 128:0 129:0 130:0 
0 0 0.09509913487473903 0 0 0 0 0 1:1 2:1 3:1 4:1 5:1 6:1 7:1 8:0 9:0 10:0 11:1 12:1 13:1 14:1 15:1 16:1 17:1 18:0 19:0 20:1 21:1 22:1 23:0 24:0 25:0 26:0 27:0 28:0 29:0 30:1 31:1 32:1 33:0 34:0 35:0 36:0 37:0 38:0 39:0 40:1 41:1 42:1 43:1 44:1 45:1 46:0 47:0 48:0 49:0 50:1 51:1 52:1 53:1 54:1 55:1 56:1 57:0 58:0 59:0 60:1 61:1 62:1 63:1 64:1 65:1 66:1 67:1 68:0 69:0 70:0 71:0 72:0 73:0 74:0 75:1 76:1 77:1 78:1 79:0 80:0 81:0 82:0 83:0 84:0 85:1 86:1 87:1 88:1 89:0 90:0 91:0 92:0 93:0 94:0 95:1 96:1 97:1 98:1 99:0 100:0 101:0 102:0 103:0 104:1 105:1 106:1 107:1 108:0 109:0 110:0 111:0 112:1 113:1 114:1 115:1 116:1 117:1 118:0 119:0 120:1 121:1 122:1 123:1 124:1 125:1 126:1 127:0 128:0 129:0 130:0 
0 0.1490533625341655 0 0 0 0 0 0 1:0 2:1 3:1 4:1 5:1 6:1 7:0 8:0 9:0 10:0 11:1 12:1 13:1 14:1 15:1 16:1 17:1 18:0 19:0 20:0 21:1 22:1 23:1 24:1 25:0 26:0 27:0 28:0 29:0 30:1 31:1 32:1 33:0 34:0 35:0 36:0 37:0 38:0 39:0 40:1 41:1 42:1 43:1 44:1 45:1 46:0 47:0 48:0 49:0 50:1 51:1 52:1 53:1 54:1 55:1 56:1 57:1 58:0 59:0 60:0 61:0 62:0 63:0 64:1 65:1 66:1 67:1 68:0 69:0 70:0 71:0 72:0 73:0 74:0 75:1 76:1 77:1 78:1 79:0 80:0 81:0 82:0 83:0 84:0 85:0 86:1 87:1 88:1 89:0 90:0 91:0 92:0 93:0 94:0 95:1 96:1 97:1 98:1 99:0 100:0 101:0 102:0 103:0 104:1 105:1 106:1 107:1 108:0 109:0 110:0 111:1 112:1 113:1 114:1 115:1 116:1 117:0 118:0 119:0 120:0 121:1 122:1 123:1 124:1 125:1 126:0 127:0 128:0 129:0 130:0 
0 0 0.2265119008303896 0 0 0 0 0 1:0 2:1 3:1 4:1 5:1 6:0 7:0 8:0 9:0 10:1 11:1 12:1 13:1 14:1 15:1 16:0 17:0 18:0 19:0 20:1 21:1 22:1 23:1 24:1 25:0 26:0 27:0 28:0 29:0 30:1 31:1 32:1 33:0 34:0 35:0 36:0 37:0 38:0 39:0 40:1 41:1 42:1 43:1 44:0 45:0 46:0 47:0 48:0 49:0 50:1 51:1 52:1 53:1 54:1 55:1 56:0 57:0 58:0 59:0 60:1 61:1 62:1 63:1 64:1 65:1 66:1 67:0 68:0 69:0 70:0 71:0 72:0 73:0 74:1 75:1 76:1 77:0 78:0 79:0 80:0 81:0 82:0 83:0 84:1 85:1 86:1 87:0 88:0 89:0 90:0 91:0 92:0 93:0 94:1 95:1 96:1 97:0 98:0 99:0 100:0 101:1 102:1 103:1 104:1 105:1 106:1 107:0 108:0 109:0 110:1 111:1 112:1 113:1 114:1 115:1 116:0 117:0 118:0 119:0 120:0 121:0 122:1 123:0 124:0 125:0 126:0 127:0 128:0 129:0 130:0 
0 0 0 0.09130855447182396 0 0.6391800162125699 0.1806628424343776 0 1:0 2:0 3:0 4:1 5:1 6:0 7:0 8:0 9:0 10:0 11:1 12:1 13:1 14:1 15:1 16:1 17:1 18:0 19:0 20:0 21:1 22:1 23:1 24:1 25:1 26:1 27:0 28:0 29:0 30:0 31:1 32:1 33:0 34:0 35:0 36:0 37:0 38:0 39:0 40:0 41:1 42:1 43:1 44:1 45:0 46:0 47:0 48:0 49:0 50:0 51:1 52:1 53:1 54:1 55:1 56:1 57:0 58:0 59:0 60:0 61:1 62:1 63:1 64:1 65:1 66:1 67:1 68:0 69:0 70:0 71:0 72:0 73:0 74:0 75:1 76:1 77:1 78:0 79:0 80:0 81:0 82:0 83:0 84:0 85:1 86:1 87:1 88:0 89:0 90:0 91:0 92:0 93:0 94:0 95:1 96:1 97:1 98:0 99:0 100:0 101:0 102:0 103:0 104:1 105:1 106:1 107:1 108:0 109:0 110:0 111:1 112:1 113:1 114:1 115:1 116:1 117:0 118:0 119:0 120:1 121:1 122:1 123:1 124:1 125:1 126:0 127:0 128:0 129:0 130:0 
0 0 0 0.04766427497523326 0 0 0 0 1:0 2:1 3:1 4:1 5:1 6:1 7:0 8:0 9:0 10:0 11:1 12:1 13:1 14:1 15:1 16:1 17:1 18:0 19:0 20:0 21:1 22:1 23:1 24:1 25:1 26:0 27:0 28:0 29:0 30:0 31:1 32:1 33:1 34:0 35:0 36:0 37:0 38:0 39:0 40:0 41:1 42:1 43:1 44:1 45:1 46:0 47:0 48:0 49:0 50:0 51:1 52:1 53:1 54:1 55:1 56:1 57:0 58:0 59:0 60:0 61:1 62:1 63:1 64:1 65:1 66:1 67:1 68:0 69:0 70:0 71:0 72:0 73:0 74:0 75:1 76:1 77:1 78:1 79:0 80:0 81:0 82:0 83:0 84:0 85:0 86:1 87:1 88:1 89:0 90:0 91:0 92:0 93:0 94:0 95:1 96:1 97:1 98:1 99:0 100:0 101:0 102:0 103:0 104:1 105:1 106:1 107:1 108:0 109:0 110:0 111:1 112:1 113:1 114:1 115:1 116:1 117:0 118:0 119:0 120:1 121:1 122:1 123:1 124:1 125:1 126:0 127:0 128:0 129:0 130:0 
0 0.7391248172127072 0 0 0 0 0 0 1:1 2:1 3:1 4:1 5:1 6:1 7:0 8:0 9:0 10:1 11:1 12:1 13:1 14:1 15:1 16:0 17:0 18:0 19:0 20:1 21:1 22:1 23:0 24:0 25:0 26:0 27:0 28:0 29:0 30:1 31:1 32:1 33:1 34:0 35:0 36:0 37:0 38:0 39:0 40:1 41:1 42:1 43:1 44:1 45:1 46:1 47:0 48:0 49:0 50:0 51:1 52:1 53:1 54:1 55:1 56:1 57:1 58:0 59:0 60:0 61:0 62:0 63:0 64:0 65:1 66:1 67:1 68:0 69:0 70:0 71:0 72:0 73:0 74:0 75:0 76:1 77:1 78:1 79:0 80:0 81:0 82:0 83:0 84:0 85:1 86:1 87:1 88:1 89:0 90:0 91:0 92:0 93:0 94:0 95:1 96:1 97:1 98:0 99:0 100:0 101:0 102:1 103:1 104:1 105:1 106:1 107:0 108:0 109:0 110:0 111:1 112:1 113:1 114:1 115:1 116:0 117:0 118:0 119:0 120:0 121:0 122:1 123:0 124:0 125:0 126:0 127:0 128:0 129:0 130:0 
0 0 0.3702802097929986 0 0 0 0 0 1:1 2:1 3:1 4:1 5:1 6:1 7:1 8:0 9:0 10:1 11:1 12:1 13:1 14:1 15:1 16:1 17:1 18:0 19:0 20:1 21:1 22:1 23:0 24:0 25:0 26:0 27:0 28:0 29:0 30:1 31:1 32:1 33:0 34:0 35:0 36:0 37:0 38:0 39:0 40:1 41:1 42:1 43:1 44:1 45:1 46:0 47:0 48:0 49:0 50:1 51:1 52:1 53:1 54:1 55:1 56:1 57:0 58:0 59:0 60:1 61:1 62:1 63:1 64:1 65:1 66:1 67:1 68:0 69:0 70:0 71:0 72:0 73:0 74:0 75:1 76:1 77:1 78:0 79:0 80:0 81:0 82:0 83:0 84:0 85:1 86:1 87:1 88:1 89:0 90:0 91:0 92:0 93:0 94:0 95:1 96:1 97:1 98:1 99:0 100:0 101:0 102:0 103:0 104:1 105:1 106:1 107:1 108:0 109:0 110:0 111:0 112:1 113:1 114:1 115:1 116:1 117:1 118:0 119:0 120:1 121:1 122:1 123:1 124:1 125:0 126:0 127:0 128:0 129:0 130:0 
0 0.05247472709919671 0 0.1303208083383657 0.5250183808876773 0 0 0 1:1 2:1 3:1 4:1 5:1 6:1 7:1 8:0 9:0 10:0 11:1 12:1 13:1 14:1 15:1 16:1 17:0 18:0 19:0 20:0 21:1 22:1 23:1 24:0 25:0 26:0 27:0 28:0 29:0 30:1 31:1 32:1 33:1 34:1 35:0 36:0 37:0 38:0 39:0 40:0 41:1 42:1 43:1 44:1 45:1 46:1 47:0 48:0 49:0 50:0 51:1 52:1 53:1 54:1 55:1 56:1 57:1 58:0 59:0 60:0 61:0 62:0 63:0 64:0 65:1 66:1 67:1 68:1 69:0 70:0 71:0 72:0 73:0 74:0 75:0 76:1 77:1 78:1 79:0 80:0 81:0 82:0 83:0 84:0 85:0 86:1 87:1 88:1 89:0 90:0 91:0 92:0 93:0 94:0 95:1 96:1 97:1 98:0 99:0 100:0 101:0 102:1 103:1 104:1 105:1 106:1 107:1 108:0 109:0 110:0 111:1 112:1 113:1 114:1 115:1 116:1 117:0 118:0 119:0 120:0 121:0 122:1 123:1 124:0 125:0 126:0 127:0 128:0 129:0 130:0 
0 0 0 0.185557572140538 0 0.7082279769717801 0.4915235514665108 0 1:1 2:1 3:1 4:1 5:1 6:1 7:1 8:1 9:0 10:0 11:1 12:1 13:1 14:1 15:1 16:1 17:1 18:0 19:0 20:0 21:1 22:1 23:0 24:0 25:0 26:0 27:0 28:0 29:0 30:0 31:1 32:1 33:1 34:1 35:0 36:0 37:0 38:0 39:0 40:0 41:1 42:1 43:1 44:1 45:1 46:0 47:0 48:0 49:0 50:0 51:1 52:1 53:1 54:1 55:1 56:1 57:0 58:0 59:0 60:0 61:0 62:1 63:1 64:1 65:1 66:1 67:1 68:0 69:0 70:0 71:0 72:0 73:0 74:0 75:0 76:1 77:1 78:1 79:0 80:0 81:0 82:0 83:0 84:0 85:0 86:1 87:1 88:1 89:0 90:0 91:0 92:0 93:0 94:0 95:1 96:1 97:1 98:1 99:0 100:0 101:0 102:0 103:0 104:0 105:1 106:1 107:1 108:1 109:0 110:0 111:0 112:1 113:1 114:1 115:1 116:1 117:1 118:0 119:0 120:1 121:1 122:1 123:1 124:1 125:1 126:1 127:0 128:0 129:0 130:0 
0 0 0 0 0 1 0 0 1:1 2:1 3:1 4:1 5:1 6:1 7:1 8:0 9:0 10:1 11:1 12:1 13:1 14:0 15:0 16:0 17:0 18:0 19:0 20:1 21:1 22:0 23:0 24:0 25:0 26:0 27:0 28:0 29:0 30:1 31:1 32:1 33:1 34:0 35:0 36:0 37:0 38:0 39:0 40:1 41:1 42:1 43:1 44:1 45:1 46:0 47:0 48:0 49:0 50:0 51:0 52:1 53:1 54:1 55:1 56:1 57:0 58:0 59:0 60:0 61:0 62:0 63:1 64:1 65:1 66:1 67:1 68:0 69:0 70:0 71:0 72:0 73:0 74:0 75:1 76:1 77:1 78:1 79:0 80:0 81:0 82:0 83:0 84:0 85:1 86:1 87:1 88:1 89:0 90:0 91:0 92:0 93:0 94:0 95:1 96:1 97:1 98:1 99:0 100:0 101:0 102:0 103:1 104:1 105:1 106:1 107:1 108:0 109:0 110:0 111:1 112:1 113:1 114:1 115:1 116:1 117:1 118:0 119:0 120:1 121:1 122:1 123:1 124:1 125:0 126:0 127:0 128:0 129:0 130:0 
0 0 0 0 0.06328051959391468 0 0.1951645431951758 0 1:1 2:1 3:1 4:1 5:1 6:1 7:0 8:0 9:0 10:0 11:1 12:1 13:1 14:1 15:1 16:0 17:0 18:0 19:0 20:1 21:1 22:1 23:0 24:0 25:0 26:0 27:0 28:0 29:0 30:0 31:1 32:1 33:1 34:1 35:0 36:0 37:0 38:0 39:0 40:0 41:1 42:1 43:1 44:1 45:1 46:1 47:0 48:0 49:0 50:0 51:1 52:1 53:1 54:1 55:1 56:1 57:1 58:0 59:0 60:0 61:0 62:0 63:0 64:0 65:1 66:1 67:1 68:0 69:0 70:0 71:0 72:0 73:0 74:0 75:0 76:1 77:1 78:1 79:0 80:0 81:0 82:0 83:0 84:0 85:1 86:1 87:1 88:1 89:0 90:0 91:0 92:0 93:0 94:1 95:1 96:1 97:1 98:0 99:0 100:0 101:0 102:1 103:1 104:1 105:1 106:1 107:1 108:0 109:0 110:0 111:1 112:1 113:1 114:1 115:1 116:0 117:0 118:0 119:0 120:0 121:0 122:1 123:0 124:0 125:0 126:0 127:0 128:0 129:0 130:0 
0 0 0 0 0 1 0 0 1:1 2:1 3:1 4:1 5:0 6:0 7:0 8:0 9:0 10:1 11:1 12:1 13:1 14:1 15:1 16:1 17:0 18:0 19:0 20:1 21:1 22:1 23:1 24:1 25:1 26:0 27:0 28:0 29:0 30:1 31:1 32:0 33:0 34:0 35:0 36:0 37:0 38:0 39:0 40:1 41:1 42:1 43:1 44:1 45:0 46:0 47:0 48:0 49:0 50:1 51:1 52:1 53:1 54:1 55:1 56:0 57:0 58:0 59:0 60:0 61:1 62:1 63:1 64:1 65:1 66:1 67:0 68:0 69:0 70:0 71:0 72:0 73:0 74:1 75:1 76:1 77:0 78:0 79:0 80:0 81:0 82:0 83:0 84:0 85:1 86:1 87:0 88:0 89:0 90:0 91:0 92:0 93:0 94:1 95:1 96:1 97:0 98:0 99:0 100:0 101:0 102:0 103:1 104:1 105:1 106:1 107:0 108:0 109:0 110:1 111:1 112:1 113:1 114:1 115:1 116:0 117:0 118:0 119:0 120:1 121:1 122:1 123:1 124:0 125:0 126:0 127:0 128:0 129:0 130:0 
0 0.856962027248297 0 0 0.3525228319384625 0 0 0 1:0 2:0 3:1 4:1 5:1 6:0 7:0 8:0 9:0 10:1 11:1 12:1 13:1 14:1 15:1 16:0 17:0 18:0 19:0 20:1 21:1 22:1 23:1 24:1 25:0 26:0 27:0 28:0 29:0 30:1 31:1 32:1 33:0 34:0 35:0 36:0 37:0 38:0 39:0 40:1 41:1 42:1 43:1 44:0 45:0 46:0 47:0 48:0 49:0 50:1 51:1 52:1 53:1 54:1 55:1 56:0 57:0 58:0 59:0 60:1 61:1 62:1 63:1 64:1 65:1 66:1 67:0 68:0 69:0 70:0 71:0 72:0 73:0 74:1 75:1 76:1 77:0 78:0 79:0 80:0 81:0 82:0 83:0 84:0 85:1 86:1 87:0 88:0 89:0 90:0 91:0 92:0 93:0 94:1 95:1 96:1 97:0 98:0 99:0 100:0 101:1 102:1 103:1 104:1 105:1 106:1 107:0 108:0 109:0 110:1 111:1 112:1 113:1 114:1 115:1 116:0 117:0 118:0 119:0 120:0 121:0 122:1 123:0 124:0 125:0 126:0 127:0 128:0 129:0 130:0 
0 0 0 0.2958862760551274 0 0 0 0 1:0 2:1 3:1 4:1 5:1 6:1 7:0 8:0 9:0 10:0 11:1 12:1 13:1 14:1 15:1 16:0 17:0 18:0 19:0 20:1 21:1 22:1 23:1 24:1 25:0 26:0 27:0 28:0 29:0 30:1 31:1 32:1 33:0 34:0 35:0 36:0 37:0 38:0 39:0 40:1 41:1 42:1 43:1 44:1 45:0 46:0 47:0 48:0 49:0 50:0 51:1 52:1 53:1 54:1 55:1 56:1 57:0 58:0 59:0 60:0 61:1 62:1 63:1 64:1 65:1 66:1 67:0 68:0 69:0 70:0 71:0 72:0 73:0 74:0 75:1 76:1 77:0 78:0 79:0 80:0 81:0 82:0 83:0 84:0 85:1 86:1 87:0 88:0 89:0 90:0 91:0 92:0 93:0 94:1 95:1 96:1 97:0 98:0 99:0 100:0 101:1 102:1 103:1 104:1 105:1 106:1 107:0 108:0 109:0 110:0 111:1 112:1 113:1 114:1 115:1 116:0 117:0 118:0 119:0 120:0 121:0 122:1 123:0 124:0 125:0 126:0 127:0 128:0 129:0 130:0 
0 0 0.6322703236403477 0 0 0 0 0 1:1 2:1 3:1 4:1 5:1 6:1 7:1 8:1 9:0 10:0 11:1 12:1 13:1 14:1 15:1 16:1 17:1 18:0 19:0 20:0 21:1 22:1 23:1 24:0 25:0 26:0 27:0 28:0 29:0 30:0 31:1 32:1 33:1 34:0 35:0 36:0 37:0 38:0 39:0 40:0 41:1 42:1 43:1 44:1 45:1 46:1 47:0 48:0 49:0 50:0 51:1 52:1 53:1 54:1 55:1 56:1 57:1 58:0 59:0 60:0 61:0 62:1 63:1 64:1 65:1 66:1 67:1 68:1 69:0 70:0 71:0 72:0 73:0 74:0 75:1 76:1 77:1 78:1 79:0 80:0 81:0 82:0 83:0 84:0 85:0 86:1 87:1 88:1 89:0 90:0 91:0 92:0 93:0 94:0 95:1 96:1 97:1 98:1 99:0 100:0 101:0 102:0 103:0 104:0 105:1 106:1 107:1 108:1 109:0 110:0 111:0 112:1 113:1 114:1 115:1 116:1 117:1 118:0 119:0 120:1 121:1 122:1 123:1 124:1 125:1 126:1 127:0 128:0 129:0 130:0 
0 0 0 1 0.4084684615071113 1 0 0 1:0 2:0 3:0 4:1 5:1 6:0 7:0 8:0 9:0 10:0 11:1 12:1 13:1 14:1 15:1 16:1 17:1 18:0 19:0 20:0 21:1 22:1 23:1 24:1 25:1 26:1 27:0 28:0 29:0 30:0 31:1 32:1 33:1 34:0 35:0 36:0 37:0 38:0 39:0 40:0 41:1 42:1 43:1 44:1 45:1 46:0 47:0 48:0 49:0 50:0 51:1 52:1 53:1 54:1 55:1 56:1 57:0 58:0 59:0 60:0 61:1 62:1 63:1 64:1 65:1 66:1 67:1 68:0 69:0 70:0 71:0 72:0 73:0 74:0 75:1 76:1 77:1 78:0 79:0 80:0 81:0 82:0 83:0 84:0 85:0 86:1 87:1 88:1 89:0 90:0 91:0 92:0 93:0 94:0 95:1 96:1 97:1 98:0 99:0 100:0 101:0 102:0 103:0 104:1 105:1 106:1 107:1 108:0 109:0 110:0 111:1 112:1 113:1 114:1 115:1 116:1 117:0 118:0 119:0 120:1 121:1 122:1 123:1 124:1 125:1 126:0 127:0 128:0 129:0 130:0 
0.4369275394604344 0 0 0 0 0.6795119135443011 0 0.7993922887490065 1:1 2:0 3:1 4:1 5:0 6:0 7:0 8:0 9:0 10:1 11:1 12:1 13:1 14:1 15:1 16:1 17:0 18:0 19:0 20:1 21:1 22:1 23:0 24:0 25:0 26:0 27:0 28:0 29:0 30:1 31:1 32:0 33:0 34:0 35:0 36:0 37:0 38:0 39:0 40:1 41:1 42:1 43:1 44:1 45:0 46:0 47:0 48:0 49:0 50:1 51:1 52:1 53:1 54:1 55:1 56:0 57:0 58:0 59:0 60:0 61:0 62:0 63:1 64:1 65:1 66:1 67:0 68:0 69:0 70:0 71:0 72:0 73:0 74:1 75:1 76:1 77:0 78:0 79:0 80:0 81:0 82:0 83:0 84:0 85:1 86:1 87:0 88:0 89:0 90:0 91:0 92:0 93:0 94:1 95:1 96:1 97:0 98:0 99:0 100:0 101:0 102:0 103:1 104:1 105:1 106:1 107:0 108:0 109:0 110:1 111:1 112:1 113:1 114:1 115:1 116:0 117:0 118:0 119:0 120:1 121:1 122:1 123:1 124:0 125:0 126:0 127:0 128:0 129:0 130:0 
0 0 0 0.4010203404558999 0 0 0 0 1:0 2:0 3:1 4:1 5:1 6:0 7:0 8:0 9:0 10:0 11:1 12:1 13:1 14:1 15:1 16:1 17:1 18:0 19:0 20:0 21:1 22:1 23:1 24:1 25:1 26:0 27:0 28:0 29:0 30:0 31:1 32:1 33:1 34:0 35:0 36:0 37:0 38:0 39:0 40:0 41:1 42:1 43:1 44:1 45:1 46:0 47:0 48:0 49:0 50:0 51:1 52:1 53:1 54:1 55:1 56:1 57:0 58:0 59:0 60:0 61:1 62:1 63:1 64:1 65:1 66:1 67:1 68:0 69:0 70:0 71:0 72:0 73:0 74:0 75:1 76:1 77:1 78:1 79:0 80:0 81:0 82:0 83:0 84:0 85:0 86:1 87:1 88:1 89:0 90:0 91:0 92:0 93:0 94:0 95:1 96:1 97:1 98:0 99:0 100:0 101:0 102:0 103:0 104:1 105:1 106:1 107:1 108:0 109:0 110:0 111:1 112:1 113:1 114:1 115:1 116:1 117:0 118:0 119:0 120:1 121:1 122:1 123:1 124:1 125:1 126:0 127:0 128:0 129:0 130:0 
0.6242095978395758 0 0.3410528449655207 0 0 0 0 0 1:0 2:0 3:1 4:1 5:1 6:0 7:0 8:0 9:0 10:0 11:1 12:1 13:1 14:1 15:1 16:1 17:0 18:0 19:0 20:1 21:1 22:1 23:1 24:1 25:1 26:0 27:0 28:0 29:0 30:1 31:1 32:1 33:0 34:0 35:0 36:0 37:0 38:0 39:0 40:1 41:1 42:1 43:1 44:1 45:1 46:0 47:0 48:0 49:0 50:1 51:1 52:1 53:1 54:1 55:1 56:1 57:0 58:0 59:0 60:0 61:0 62:1 63:1 64:1 65:1 66:1 67:1 68:0 69:0 70:0 71:0 72:0 73:0 74:0 75:1 76:1 77:1 78:1 79:0 80:0 81:0 82:0 83:0 84:0 85:1 86:1 87:1 88:1 89:0 90:0 91:0 92:0 93:0 94:0 95:1 96:1 97:1 98:1 99:0 100:0 101:0 102:0 103:0 104:1 105:1 106:1 107:1 108:0 109:0 110:0 111:0 112:1 113:1 114:1 115:1 116:1 117:0 118:0 119:0 120:0 121:1 122:1 123:1 124:1 125:1 126:0 127:0 128:0 129:0 130:0 
0 0 0 0 0 0 0 0.3410015237213934 1:1 2:1 3:1 4:1 5:1 6:1 7:1 8:0 9:0 10:0 11:1 12:1 13:1 14:1 15:1 16:1 17:0 18:0 19:0 20:0 21:1 22:1 23:0 24:0 25:0 26:0 27:0 28:0 29:0 30:0 31:1 32:1 33:1 34:0 35:0 36:0 37:0 38:0 39:0 40:1 41:1 42:1 43:1 44:1 45:1 46:1 47:0 48:0 49:0 50:0 51:1 52:1 53:1 54:1 55:1 56:1 57:1 58:0 59:0 60:0 61:0 62:0 63:0 64:0 65:1 66:1 67:1 68:0 69:0 70:0 71:0 72:0 73:0 74:0 75:0 76:1 77:1 78:0 79:0 80:0 81:0 82:0 83:0 84:0 85:0 86:1 87:1 88:0 89:0 90:0 91:0 92:0 93:0 94:0 95:1 96:1 97:1 98:0 99:0 100:0 101:0 102:1 103:1 104:1 105:1 106:1 107:0 108:0 109:0 110:1 111:1 112:1 113:1 114:1 115:1 116:0 117:0 118:0 119:0 120:0 121:0 122:1 123:0 124:0 125:0 126:0 127:0 128:0 129:0 130:0 
0 0 0 0 1 0 0 0 1:0 2:0 3:1 4:1 5:1 6:1 7:0 8:0 9:0 10:0 11:1 12:1 13:1 14:1 15:1 16:1 17:1 18:0 19:0 20:0 21:1 22:1 23:1 24:1 25:1 26:0 27:0 28:0 29:0 30:0 31:1 32:1 33:1 34:0 35:0 36:0 37:0 38:0 39:0 40:1 41:1 42:1 43:1 44:1 45:1 46:0 47:0 48:0 49:0 50:1 51:1 52:1 53:1 54:1 55:1 56:1 57:0 58:0 59:0 60:0 61:0 62:1 63:1 64:1 65:1 66:1 67:1 68:0 69:0 70:0 71:0 72:0 73:0 74:0 75:1 76:1 77:1 78:1 79:0 80:0 81:0 82:0 83:0 84:0 85:0 86:1 87:1 88:1 89:0 90:0 91:0 92:0 93:0 94:0 95:1 96:1 97:1 98:1 99:0 100:0 101:0 102:0 103:0 104:1 105:1 106:1 107:1 108:0 109:0 110:0 111:1 112:1 113:1 114:1 115:1 116:1 117:1 118:0 119:0 120:0 121:1 122:1 123:1 124:1 125:1 126:0 127:0 128:0 129:0 130:0 
0 0.5424009673086632 0 1 1 1 0 0 1:1 2:1 3:1 4:1 5:1 6:1 7:1 8:1 9:0 10:0 11:1 12:1 13:1 14:1 15:1 16:1 17:1 18:0 19:0 20:0 21:1 22:1 23:1 24:0 25:0 26:0 27:0 28:0 29:0 30:0 31:1 32:1 33:1 34:1 35:1 36:0 37:0 38:0 39:0 40:0 41:1 42:1 43:1 44:1 45:1 46:1 47:0 48:0 49:0 50:0 51:1 52:1 53:1 54:1 55:1 56:1 57:1 58:0 59:0 60:0 61:0 62:1 63:1 64:1 65:1 66:1 67:1 68:1 69:0 70:0 71:0 72:0 73:0 74:0 75:0 76:1 77:1 78:1 79:1 80:0 81:0 82:0 83:0 84:0 85:0 86:1 87:1 88:1 89:1 90:0 91:0 92:0 93:0 94:0 95:0 96:1 97:1 98:1 99:1 100:0 101:0 102:0 103:0 104:1 105:1 106:1 107:1 108:1 109:0 110:0 111:1 112:1 113:1 114:1 115:1 116:1 117:1 118:0 119:0 120:1 121:1 122:1 123:1 124:1 125:1 126:1 127:0 128:0 129:0 130:0 
0 0.5669957816075661 0 0.3828701444335638 1 1 0 0.496643451032403 1:1 2:1 3:1 4:1 5:1 6:1 7:1 8:1 9:0 10:0 11:1 12:1 13:1 14:1 15:1 16:1 17:1 18:0 19:0 20:0 21:1 22:1 23:1 24:0 25:0 26:0 27:0 28:0 29:0 30:0 31:1 32:1 33:1 34:1 35:0 36:0 37:0 38:0 39:0 40:0 41:1 42:1 43:1 44:1 45:1 46:1 47:0 48:0 49:0 50:0 51:1 52:1 53:1 54:1 55:1 56:1 57:1 58:0 59:0 60:0 61:0 62:1 63:1 64:1 65:1 66:1 67:1 68:1 69:0 70:0 71:0 72:0 73:0 74:0 75:0 76:1 77:1 78:1 79:0 80:0 81:0 82:0 83:0 84:0 85:0 86:1 87:1 88:1 89:1 90:0 91:0 92:0 93:0 94:0 95:0 96:1 97:1 98:1 99:1 100:0 101:0 102:0 103:0 104:0 105:1 106:1 107:1 108:1 109:0 110:0 111:0 112:1 113:1 114:1 115:1 116:1 117:1 118:0 119:0 120:1 121:1 122:1 123:1 124:1 125:1 126:1 127:0 128:0 129:0 130:0 
0 0 0 0 0 0 0.3003605217878583 0 1:1 2:1 3:1 4:1 5:1 6:1 7:1 8:1 9:0 10:0 11:1 12:1 13:1 14:1 15:1 16:1 17:1 18:0 19:0 20:0 21:1 22:1 23:1 24:0 25:0 26:0 27:0 28:0 29:0 30:0 31:1 32:1 33:1 34:1 35:0 36:0 37:0 38:0 39:0 40:0 41:1 42:1 43:1 44:1 45:1 46:1 47:0 48:0 49:0 50:0 51:1 52:1 53:1 54:1 55:1 56:1 57:1 58:0 59:0 60:0 61:0 62:1 63:1 64:1 65:1 66:1 67:1 68:1 69:0 70:0 71:0 72:0 73:0 74:0 75:0 76:1 77:1 78:1 79:0 80:0 81:0 82:0 83:0 84:0 85:0 86:1 87:1 88:1 89:1 90:0 91:0 92:0 93:0 94:0 95:1 96:1 97:1 98:1 99:1 100:0 101:0 102:0 103:0 104:0 105:1 106:1 107:1 108:1 109:0 110:0 111:0 112:1 113:1 114:1 115:1 116:1 117:1 118:0 119:0 120:1 121:1 122:1 123:1 124:1 125:1 126:1 127:0 128:0 129:0 130:0 
0 0 0 0 0.5838552383743847 1 0 0 1:1 2:1 3:1 4:1 5:1 6:1 7:1 8:0 9:0 10:0 11:1 12:1 13:1 14:1 15:1 16:1 17:0 18:0 19:0 20:0 21:1 22:1 23:1 24:0 25:0 26:0 27:0 28:0 29:0 30:0 31:1 32:1 33:1 34:1 35:0 36:0 37:0 38:0 39:0 40:0 41:1 42:1 43:1 44:1 45:1 46:1 47:0 48:0 49:0 50:0 51:1 52:1 53:1 54:1 55:1 56:1 57:1 58:0 59:0 60:0 61:0 62:0 63:0 64:0 65:1 66:1 67:1 68:0 69:0 70:0 71:0 72:0 73:0 74:0 75:0 76:1 77:1 78:1 79:0 80:0 81:0 82:0 83:0 84:0 85:0 86:1 87:1 88:0 89:0 90:0 91:0 92:0 93:0 94:0 95:1 96:1 97:1 98:0 99:0 100:0 101:0 102:1 103:1 104:1 105:1 106:1 107:1 108:0 109:0 110:1 111:1 112:1 113:1 114:1 115:1 116:0 117:0 118:0 119:0 120:0 121:0 122:1 123:0 124:0 125:0 126:0 127:0 128:0 129:0 130:0 
0 0.3343838717720214 0 0 0 0 0 0 1:1 2:1 3:1 4:1 5:1 6:1 7:1 8:0 9:0 10:0 11:1 12:1 13:1 14:1 15:1 16:1 17:0 18:0 19:0 20:1 21:1 22:1 23:1 24:0 25:0 26:0 27:0 28:0 29:0 30:1 31:1 32:1 33:1 34:1 35:0 36:0 37:0 38:0 39:0 40:1 41:1 42:1 43:1 44:1 45:1 46:1 47:0 48:0 49:0 50:0 51:1 52:1 53:1 54:1 55:1 56:1 57:1 58:0 59:0 60:0 61:0 62:0 63:0 64:0 65:1 66:1 67:1 68:1 69:0 70:0 71:0 72:0 73:0 74:0 75:0 76:1 77:1 78:1 79:0 80:0 81:0 82:0 83:0 84:0 85:1 86:1 87:1 88:1 89:0 90:0 91:0 92:0 93:0 94:1 95:1 96:1 97:1 98:1 99:0 100:0 101:0 102:1 103:1 104:1 105:1 106:1 107:1 108:0 109:0 110:0 111:1 112:1 113:1 114:1 115:1 116:1 117:0 118:0 119:0 120:0 121:0 122:1 123:1 124:0 125:0 126:0 127:0 128:0 129:0 130:0 
0.9443016999475971 0 0 1 0 0.7194021009193137 0.8679760206253929 0.1124188360791626 1:1 2:1 3:1 4:1 5:1 6:1 7:1 8:1 9:0 10:0 11:1 12:1 13:1 14:1 15:1 16:1 17:1 18:0 19:0 20:0 21:1 22:1 23:1 24:0 25:0 26:0 27:0 28:0 29:0 30:0 31:1 32:1 33:1 34:1 35:0 36:0 37:0 38:0 39:0 40:0 41:1 42:1 43:1 44:1 45:1 46:1 47:0 48:0 49:0 50:0 51:1 52:1 53:1 54:1 55:1 56:1 57:1 58:0 59:0 60:0 61:0 62:1 63:1 64:1 65:1 66:1 67:1 68:0 69:0 70:0 71:0 72:0 73:0 74:0 75:1 76:1 77:1 78:1 79:0 80:0 81:0 82:0 83:0 84:0 85:0 86:1 87:1 88:1 89:0 90:0 91:0 92:0 93:0 94:0 95:0 96:1 97:1 98:1 99:0 100:0 101:0 102:0 103:0 104:0 105:1 106:1 107:1 108:1 109:0 110:0 111:0 112:0 113:1 114:1 115:1 116:1 117:1 118:0 119:0 120:1 121:1 122:1 123:1 124:1 125:1 126:1 127:0 128:0 129:0 130:0 
0 0 0 0 0 0.8031070539925194 0 0 1:0 2:1 3:1 4:1 5:1 6:1 7:0 8:0 9:0 10:0 11:1 12:1 13:1 14:1 15:1 16:1 17:1 18:0 19:0 20:0 21:1 22:1 23:1 24:1 25:1 26:0 27:0 28:0 29:0 30:0 31:1 32:1 33:1 34:0 35:0 36:0 37:0 38:0 39:0 40:0 41:1 42:1 43:1 44:1 45:1 46:0 47:0 48:0 49:0 50:0 51:1 52:1 53:1 54:1 55:1 56:1 57:0 58:0 59:0 60:0 61:0 62:1 63:1 64:1 65:1 66:1 67:1 68:0 69:0 70:0 71:0 72:0 73:0 74:0 75:1 76:1 77:1 78:1 79:0 80:0 81:0 82:0 83:0 84:0 85:0 86:1 87:1 88:1 89:0 90:0 91:0 92:0 93:0 94:0 95:1 96:1 97:1 98:0 99:0 100:0 101:0 102:0 103:1 104:1 105:1 106:1 107:1 108:0 109:0 110:0 111:1 112:1 113:1 114:1 115:1 116:1 117:0 118:0 119:0 120:1 121:1 122:1 123:1 124:1 125:0 126:0 127:0 128:0 129:0 130:0 
0 0 0 0.3100622733970651 0.9948634876175443 1 0 0.1608478040418303 1:1 2:1 3:1 4:1 5:1 6:1 7:1 8:1 9:0 10:0 11:1 12:1 13:1 14:0 15:0 16:0 17:0 18:0 19:0 20:0 21:1 22:1 23:0 24:0 25:0 26:0 27:0 28:0 29:0 30:0 31:1 32:1 33:1 34:1 35:1 36:0 37:0 38:0 39:0 40:0 41:1 42:1 43:1 44:1 45:1 46:1 47:0 48:0 49:0 50:0 51:0 52:1 53:1 54:1 55:1 56:1 57:1 58:0 59:0 60:0 61:0 62:0 63:1 64:1 65:1 66:1 67:1 68:1 69:0 70:0 71:0 72:0 73:0 74:0 75:0 76:1 77:1 78:1 79:0 80:0 81:0 82:0 83:0 84:0 85:0 86:1 87:1 88:1 89:0 90:0 91:0 92:0 93:0 94:0 95:1 96:1 97:1 98:1 99:0 100:0 101:0 102:0 103:0 104:1 105:1 106:1 107:1 108:1 109:0 110:0 111:1 112:1 113:1 114:1 115:1 116:1 117:1 118:0 119:0 120:1 121:1 122:1 123:1 124:1 125:0 126:0 127:0 128:0 129:0 130:0 
0 0 0 0 0.3731711833353595 0 0 0 1:0 2:0 3:0 4:0 5:1 6:0 7:0 8:0 9:0 10:0 11:1 12:1 13:1 14:1 15:1 16:1 17:0 18:0 19:0 20:1 21:1 22:1 23:1 24:1 25:1 26:0 27:0 28:0 29:0 30:1 31:1 32:1 33:1 34:0 35:0 36:0 37:0 38:0 39:0 40:1 41:1 42:1 43:1 44:1 45:0 46:0 47:0 48:0 49:0 50:1 51:1 52:1 53:1 54:1 55:1 56:1 57:0 58:0 59:0 60:0 61:1 62:1 63:1 64:1 65:1 66:1 67:1 68:0 69:0 70:0 71:0 72:0 73:0 74:0 75:1 76:1 77:1 78:0 79:0 80:0 81:0 82:0 83:0 84:0 85:1 86:1 87:1 88:0 89:0 90:0 91:0 92:0 93:0 94:1 95:1 96:1 97:1 98:0 99:0 100:0 101:0 102:1 103:1 104:1 105:1 106:1 107:1 108:0 109:0 110:0 111:1 112:1 113:1 114:1 115:1 116:1 117:0 118:0 119:0 120:0 121:0 122:1 123:1 124:0 125:0 126:0 127:0 128:0 129:0 130:0 
0 0 0 0 0 0.1549683206038073 0 0 1:1 2:1 3:1 4:1 5:1 6:1 7:1 8:1 9:0 10:0 11:1 12:1 13:1 14:1 15:1 16:1 17:0 18:0 19:0 20:0 21:1 22:1 23:1 24:0 25:0 26:0 27:0 28:0 29:0 30:0 31:1 32:1 33:1 34:1 35:1 36:0 37:0 38:0 39:0 40:0 41:1 42:1 43:1 44:1 45:1 46:1 47:0 48:0 49:0 50:0 51:1 52:1 53:1 54:1 55:1 56:1 57:1 58:0 59:0 60:0 61:0 62:1 63:1 64:1 65:1 66:1 67:1 68:1 69:0 70:0 71:0 72:0 73:0 74:0 75:0 76:1 77:1 78:1 79:0 80:0 81:0 82:0 83:0 84:0 85:0 86:1 87:1 88:1 89:1 90:0 91:0 92:0 93:0 94:0 95:1 96:1 97:1 98:1 99:0 100:0 101:0 102:0 103:0 104:1 105:1 106:1 107:1 108:1 109:0 110:0 111:1 112:1 113:1 114:1 115:1 116:1 117:1 118:0 119:0 120:1 121:1 122:1 123:1 124:1 125:1 126:1 127:0 128:0 129:0 130:0 
0 0 0 0 0.5379328892509282 0 0.2695973891282704 0 1:0 2:0 3:0 4:1 5:1 6:0 7:0 8:0 9:0 10:1 11:1 12:1 13:1 14:1 15:1 16:1 17:0 18:0 19:0 20:1 21:1 22:1 23:1 24:1 25:0 26:0 27:0 28:0 29:0 30:1 31:1 32:1 33:0 34:0 35:0 36:0 37:0 38:0 39:0 40:1 41:1 42:1 43:1 44:1 45:0 46:0 47:0 48:0 49:0 50:1 51:1 52:1 53:1 54:1 55:1 56:1 57:0 58:0 59:0 60:0 61:1 62:1 63:1 64:1 65:1 66:1 67:1 68:0 69:0 70:0 71:0 72:0 73:0 74:0 75:1 76:1 77:1 78:0 79:0 80:0 81:0 82:0 83:0 84:0 85:1 86:1 87:1 88:1 89:0 90:0 91:0 92:0 93:0 94:0 95:1 96:1 97:1 98:1 99:0 100:0 101:0 102:0 103:0 104:1 105:1 106:1 107:1 108:0 109:0 110:0 111:1 112:1 113:1 114:1 115:1 116:1 117:0 118:0 119:0 120:0 121:1 122:1 123:1 124:1 125:1 126:0 127:0 128:0 129:0 130:0 
0 0 0 0 0 0 0.2335321931551447 0 1:0 2:0 3:0 4:1 5:0 6:0 7:0 8:0 9:0 10:1 11:1 12:1 13:1 14:1 15:1 16:0 17:0 18:0 19:0 20:1 21:1 22:1 23:1 24:1 25:0 26:0 27:0 28:0 29:0 30:1 31:1 32:1 33:0 34:0 35:0 36:0 37:0 38:0 39:0 40:1 41:1 42:1 43:1 44:0 45:0 46:0 47:0 48:0 49:0 50:1 51:1 52:1 53:1 54:1 55:1 56:0 57:0 58:0 59:0 60:1 61:1 62:1 63:1 64:1 65:1 66:1 67:0 68:0 69:0 70:0 71:0 72:0 73:0 74:1 75:1 76:1 77:0 78:0 79:0 80:0 81:0 82:0 83:0 84:0 85:1 86:1 87:0 88:0 89:0 90:0 91:0 92:0 93:1 94:1 95:1 96:1 97:0 98:0 99:0 100:0 101:1 102:1 103:1 104:1 105:1 106:1 107:0 108:0 109:0 110:1 111:1 112:1 113:1 114:1 115:1 116:0 117:0 118:0 119:0 120:0 121:1 122:1 123:0 124:0 125:0 126:0 127:0 128:0 129:0 130:0 
-1 0 0.03272228280664551 0 0 0 0 0 1:0 2:1 3:1 4:1 5:1 6:0 7:0 8:0 9:0 10:0 11:1 12:1 13:1 14:1 15:1 16:1 17:0 18:0 19:0 20:1 21:1 22:1 23:1 24:1 25:1 26:1 27:0 28:0 29:0 30:1 31:1 32:1 33:1 34:1 35:1 36:1 37:0 38:0 39:0 40:1 41:1 42:1 43:1 44:1 45:1 46:1 47:0 48:0 49:0 50:0 51:0 52:1 53:1 54:1 55:1 56:1 57:0 58:0 59:0 60:0 61:0 62:1 63:1 64:1 65:1 66:1 67:0 68:0 69:0 70:0 71:0 72:0 73:1 74:1 75:1 76:1 77:0 78:0 79:0 80:0 81:0 82:0 83:1 84:1 85:1 86:1 87:0 88:0 89:0 90:0 91:0 92:0 93:1 94:1 95:1 96:1 97:0 98:0 99:0 100:0 101:0 102:0 103:1 104:1 105:1 106:1 107:0 108:0 109:0 110:0 111:0 112:0 113:1 114:1 115:1 116:0 117:0 118:0 119:0 120:0 121:0 122:0 123:0 124:1 125:0 126:0 127:0 128:0 129:0 130:0 
-0.5303787909695749 0 0 0.4930955233950565 0.5042500437440272 0.7761388154217144 1 1 1:1 2:1 3:1 4:0 5:0 6:0 7:0 8:0 9:0 10:1 11:1 12:1 13:1 14:1 15:0 16:0 17:0 18:0 19:0 20:1 21:1 22:1 23:1 24:1 25:0 26:0 27:0 28:0 29:0 30:1 31:0 32:1 33:1 34:1 35:0 36:0 37:0 38:0 39:0 40:0 41:0 42:1 43:1 44:1 45:0 46:0 47:0 48:0 49:0 50:0 51:0 52:1 53:1 54:1 55:0 56:0 57:0 58:0 59:0 60:0 61:0 62:1 63:1 64:1 65:0 66:0 67:0 68:0 69:0 70:0 71:0 72:1 73:1 74:1 75:0 76:0 77:0 78:0 79:0 80:0 81:0 82:1 83:1 84:1 85:0 86:0 87:0 88:0 89:0 90:0 91:0 92:1 93:1 94:1 95:0 96:0 97:0 98:0 99:0 100:0 101:0 102:1 103:1 104:1 105:0 106:0 107:0 108:0 109:0 110:0 111:0 112:1 113:1 114:1 115:0 116:0 117:0 118:0 119:0 120:0 121:0 122:0 123:1 124:0 125:0 126:0 127:0 128:0 129:0 130:0 
-0 0 0 0 0 0.2740062942139407 0 0.2000024557700337 1:0 2:1 3:1 4:1 5:0 6:0 7:0 8:0 9:0 10:1 11:1 12:1 13:1 14:1 15:1 16:0 17:0 18:0 19:0 20:1 21:1 22:1 23:1 24:1 25:1 26:0 27:0 28:0 29:0 30:1 31:1 32:1 33:1 34:1 35:1 36:0 37:0 38:0 39:0 40:1 41:1 42:1 43:1 44:1 45:1 46:0 47:0 48:0 49:0 50:0 51:0 52:1 53:1 54:1 55:1 56:0 57:0 58:0 59:0 60:0 61:0 62:1 63:1 64:1 65:1 66:0 67:0 68:0 69:0 70:0 71:0 72:1 73:1 74:1 75:1 76:0 77:0 78:0 79:0 80:0 81:0 82:1 83:1 84:1 85:1 86:0 87:0 88:0 89:0 90:0 91:0 92:1 93:1 94:1 95:1 96:0 97:0 98:0 99:0 100:0 101:0 102:1 103:1 104:1 105:1 106:0 107:0 108:0 109:0 110:0 111:0 112:1 113:1 114:1 115:1 116:0 117:0 118:0 119:0 120:0 121:0 122:1 123:1 124:1 125:1 126:0 127:0 128:0 129:0 130:0 
-0.1980324818906704 0 0 0 0 0 0 0 1:0 2:1 3:1 4:1 5:0 6:0 7:0 8:0 9:0 10:0 11:1 12:1 13:1 14:1 15:0 16:0 17:0 18:0 19:0 20:1 21:1 22:1 23:1 24:1 25:0 26:0 27:0 28:0 29:0 30:1 31:1 32:1 33:1 34:1 35:1 36:0 37:0 38:0 39:0 40:1 41:1 42:1 43:1 44:1 45:1 46:0 47:0 48:0 49:0 50:1 51:0 52:1 53:1 54:1 55:1 56:0 57:0 58:0 59:0 60:0 61:0 62:1 63:1 64:1 65:1 66:0 67:0 68:0 69:0 70:0 71:0 72:1 73:1 74:1 75:0 76:0 77:0 78:0 79:0 80:0 81:0 82:1 83:1 84:1 85:0 86:0 87:0 88:0 89:0 90:0 91:0 92:1 93:1 94:1 95:1 96:0 97:0 98:0 99:0 100:0 101:0 102:1 103:1 104:1 105:1 106:0 107:0 108:0 109:0 110:0 111:0 112:1 113:1 114:1 115:0 116:0 117:0 118:0 119:0 120:0 121:0 122:1 123:1 124:1 125:0 126:0 127:0 128:0 129:0 130:0 
-1 0.2093658569597794 1 1 0 0 0 0.02414933354254228 1:0 2:0 3:1 4:1 5:0 6:0 7:0 8:0 9:0 10:0 11:1 12:1 13:1 14:1 15:1 16:0 17:0 18:0 19:0 20:1 21:1 22:1 23:1 24:1 25:1 26:0 27:0 28:0 29:0 30:1 31:1 32:1 33:1 34:1 35:1 36:0 37:0 38:0 39:0 40:1 41:1 42:1 43:1 44:1 45:1 46:0 47:0 48:0 49:0 50:1 51:1 52:1 53:1 54:1 55:1 56:0 57:0 58:0 59:0 60:0 61:1 62:1 63:1 64:1 65:1 66:0 67:0 68:0 69:0 70:0 71:0 72:1 73:1 74:1 75:1 76:0 77:0 78:0 79:0 80:0 81:0 82:1 83:1 84:1 85:1 86:0 87:0 88:0 89:0 90:0 91:0 92:1 93:1 94:1 95:1 96:0 97:0 98:0 99:0 100:0 101:0 102:1 103:1 104:1 105:1 106:0 107:0 108:0 109:0 110:0 111:0 112:1 113:1 114:1 115:1 116:0 117:0 118:0 119:0 120:0 121:0 122:1 123:1 124:1 125:0 126:0 127:0 128:0 129:0 130:0 
-1 0 0 0 0 0 0 0 1:0 2:1 3:1 4:1 5:0 6:0 7:0 8:0 9:0 10:0 11:1 12:1 13:1 14:1 15:1 16:0 17:0 18:0 19:0 20:1 21:1 22:1 23:1 24:1 25:1 26:0 27:0 28:0 29:0 30:1 31:1 32:1 33:1 34:1 35:1 36:0 37:0 38:0 39:0 40:1 41:1 42:1 43:1 44:1 45:1 46:0 47:0 48:0 49:0 50:1 51:1 52:1 53:1 54:1 55:1 56:0 57:0 58:0 59:0 60:0 61:0 62:1 63:1 64:1 65:1 66:0 67:0 68:0 69:0 70:0 71:0 72:1 73:1 74:1 75:1 76:0 77:0 78:0 79:0 80:0 81:0 82:1 83:1 84:1 85:1 86:0 87:0 88:0 89:0 90:0 91:0 92:1 93:1 94:1 95:1 96:0 97:0 98:0 99:0 100:0 101:0 102:1 103:1 104:1 105:1 106:0 107:0 108:0 109:0 110:0 111:0 112:1 113:1 114:1 115:1 116:0 117:0 118:0 119:0 120:0 121:0 122:1 123:1 124:1 125:0 126:0 127:0 128:0 129:0 130:0 
-0 0 0 0 0 0 0.1378135451426537 0 1:0 2:1 3:1 4:1 5:0 6:0 7:0 8:0 9:0 10:1 11:1 12:1 13:1 14:1 15:0 16:0 17:0 18:0 19:0 20:1 21:1 22:1 23:1 24:1 25:0 26:0 27:0 28:0 29:0 30:1 31:0 32:1 33:1 34:1 35:0 36:0 37:0 38:0 39:0 40:0 41:0 42:1 43:1 44:1 45:0 46:0 47:0 48:0 49:0 50:0 51:0 52:1 53:1 54:1 55:0 56:0 57:0 58:0 59:0 60:0 61:0 62:1 63:1 64:1 65:0 66:0 67:0 68:0 69:0 70:0 71:0 72:1 73:1 74:1 75:0 76:0 77:0 78:0 79:0 80:0 81:0 82:1 83:1 84:1 85:0 86:0 87:0 88:0 89:0 90:0 91:0 92:1 93:1 94:1 95:0 96:0 97:0 98:0 99:0 100:0 101:0 102:0 103:1 104:1 105:0 106:0 107:0 108:0 109:0 110:0 111:0 112:0 113:1 114:1 115:0 116:0 117:0 118:0 119:0 120:0 121:0 122:0 123:1 124:1 125:0 126:0 127:0 128:0 129:0 130:0 
-0 0 0 0 0 0 0 0.230850862356806 1:0 2:0 3:1 4:1 5:1 6:0 7:0 8:0 9:0 10:0 11:1 12:1 13:1 14:1 15:1 16:1 17:0 18:0 19:0 20:0 21:1 22:1 23:1 24:1 25:1 26:1 27:0 28:0 29:0 30:1 31:1 32:1 33:1 34:1 35:1 36:1 37:0 38:0 39:0 40:0 41:1 42:1 43:1 44:1 45:1 46:1 47:0 48:0 49:0 50:0 51:0 52:0 53:1 54:1 55:1 56:1 57:0 58:0 59:0 60:0 61:0 62:0 63:1 64:1 65:1 66:1 67:0 68:0 69:0 70:0 71:0 72:0 73:1 74:1 75:1 76:0 77:0 78:0 79:0 80:0 81:0 82:0 83:0 84:1 85:1 86:0 87:0 88:0 89:0 90:0 91:0 92:0 93:0 94:1 95:1 96:1 97:0 98:0 99:0 100:0 101:0 102:0 103:0 104:1 105:1 106:1 107:0 108:0 109:0 110:0 111:0 112:0 113:0 114:1 115:1 116:1 117:0 118:0 119:0 120:0 121:0 122:0 123:0 124:1 125:1 126:0 127:0 128:0 129:0 130:0 
-0.1650830281415835 0 0 0 0 0 0 0 1:0 2:1 3:1 4:1 5:1 6:0 7:0 8:0 9:0 10:0 11:1 12:1 13:1 14:1 15:1 16:0 17:0 18:0 19:0 20:1 21:1 22:1 23:1 24:1 25:1 26:0 27:0 28:0 29:0 30:1 31:1 32:1 33:1 34:1 35:1 36:0 37:0 38:0 39:0 40:1 41:1 42:1 43:1 44:1 45:1 46:0 47:0 48:0 49:0 50:1 51:1 52:1 53:1 54:1 55:1 56:0 57:0 58:0 59:0 60:0 61:1 62:1 63:1 64:1 65:1 66:0 67:0 68:0 69:0 70:0 71:0 72:1 73:1 74:1 75:1 76:0 77:0 78:0 79:0 80:0 81:0 82:1 83:1 84:1 85:1 86:0 87:0 88:0 89:0 90:0 91:0 92:1 93:1 94:1 95:1 96:0 97:0 98:0 99:0 100:0 101:0 102:1 103:1 104:1 105:1 106:0 107:0 108:0 109:0 110:0 111:0 112:1 113:1 114:1 115:1 116:0 117:0 118:0 119:0 120:0 121:0 122:0 123:1 124:1 125:1 126:0 127:0 128:0 129:0 130:0 
-0.8443171636380112 0 0 0 0 0 0 0 1:0 2:0 3:1 4:1 5:0 6:0 7:0 8:0 9:0 10:0 11:1 12:1 13:1 14:1 15:0 16:0 17:0 18:0 19:0 20:1 21:1 22:1 23:1 24:1 25:1 26:0 27:0 28:0 29:0 30:1 31:1 32:1 33:1 34:1 35:1 36:0 37:0 38:0 39:0 40:1 41:1 42:1 43:1 44:1 45:1 46:0 47:0 48:0 49:0 50:1 51:1 52:1 53:1 54:1 55:1 56:0 57:0 58:0 59:0 60:0 61:0 62:1 63:1 64:1 65:1 66:0 67:0 68:0 69:0 70:0 71:0 72:1 73:1 74:1 75:1 76:0 77:0 78:0 79:0 80:0 81:0 82:1 83:1 84:1 85:1 86:0 87:0 88:0 89:0 90:0 91:0 92:1 93:1 94:1 95:1 96:0 97:0 98:0 99:0 100:0 101:0 102:1 103:1 104:1 105:1 106:0 107:0 108:0 109:0 110:0 111:0 112:1 113:1 114:1 115:1 116:0 117:0 118:0 119:0 120:0 121:0 122:1 123:1 124:1 125:0 126:0 127:0 128:0 129:0 130:0 
-0 0 0 0.09792297617436985 0 0 0 0 1:0 2:0 3:1 4:1 5:1 6:0 7:0 8:0 9:0 10:0 11:0 12:1 13:1 14:1 15:1 16:1 17:0 18:0 19:0 20:0 21:1 22:1 23:1 24:1 25:1 26:1 27:0 28:0 29:0 30:1 31:1 32:1 33:1 34:1 35:1 36:1 37:0 38:0 39:0 40:0 41:1 42:1 43:1 44:1 45:1 46:1 47:0 48:0 49:0 50:0 51:0 52:1 53:1 54:1 55:1 56:1 57:0 58:0 59:0 60:0 61:0 62:1 63:1 64:1 65:1 66:1 67:0 68:0 69:0 70:0 71:0 72:0 73:1 74:1 75:1 76:1 77:0 78:0 79:0 80:0 81:0 82:0 83:1 84:1 85:1 86:1 87:0 88:0 89:0 90:0 91:0 92:0 93:1 94:1 95:1 96:1 97:0 98:0 99:0 100:0 101:0 102:0 103:1 104:1 105:1 106:1 107:0 108:0 109:0 110:0 111:0 112:0 113:1 114:1 115:1 116:1 117:0 118:0 119:0 120:0 121:0 122:0 123:0 124:1 125:1 126:0 127:0 128:0 129:0 130:0 
-0 0 0.3020532026459913 0 0.1470595168339532 0 1 0 1:0 2:0 3:0 4:1 5:1 6:1 7:0 8:0 9:0 10:0 11:0 12:1 13:1 14:1 15:1 16:1 17:0 18:0 19:0 20:0 21:1 22:1 23:1 24:1 25:1 26:1 27:0 28:0 29:0 30:0 31:1 32:1 33:1 34:1 35:1 36:1 37:0 38:0 39:0 40:1 41:1 42:1 43:1 44:1 45:1 46:1 47:0 48:0 49:0 50:0 51:1 52:1 53:1 54:1 55:1 56:1 57:0 58:0 59:0 60:0 61:0 62:1 63:1 64:1 65:1 66:1 67:0 68:0 69:0 70:0 71:0 72:0 73:1 74:1 75:1 76:1 77:0 78:0 79:0 80:0 81:0 82:0 83:1 84:1 85:1 86:1 87:0 88:0 89:0 90:0 91:0 92:0 93:1 94:1 95:1 96:1 97:0 98:0 99:0 100:0 101:0 102:0 103:0 104:1 105:1 106:1 107:0 108:0 109:0 110:0 111:0 112:0 113:0 114:1 115:1 116:1 117:0 118:0 119:0 120:0 121:0 122:0 123:0 124:1 125:1 126:1 127:0 128:0 129:0 130:0 
-1 0 0 0 0 0 0 0 1:0 2:1 3:1 4:1 5:1 6:0 7:0 8:0 9:0 10:0 11:1 12:1 13:1 14:1 15:1 16:1 17:0 18:0 19:0 20:0 21:1 22:1 23:1 24:1 25:1 26:1 27:0 28:0 29:0 30:1 31:1 32:1 33:1 34:1 35:1 36:1 37:0 38:0 39:0 40:1 41:1 42:1 43:1 44:1 45:1 46:1 47:0 48:0 49:0 50:0 51:1 52:1 53:1 54:1 55:1 56:1 57:0 58:0 59:0 60:0 61:0 62:0 63:1 64:1 65:1 66:1 67:0 68:0 69:0 70:0 71:0 72:0 73:1 74:1 75:1 76:1 77:0 78:0 79:0 80:0 81:0 82:0 83:1 84:1 85:1 86:1 87:0 88:0 89:0 90:0 91:0 92:0 93:1 94:1 95:1 96:1 97:0 98:0 99:0 100:0 101:0 102:0 103:1 104:1 105:1 106:1 107:0 108:0 109:0 110:0 111:0 112:0 113:1 114:1 115:1 116:1 117:0 118:0 119:0 120:0 121:0 122:0 123:1 124:1 125:1 126:0 127:0 128:0 129:0 130:0 
-1 0.3015260787518016 0.5193961373941318 1 0.04520303598719987 0 0 0 1:0 2:0 3:0 4:1 5:1 6:0 7:0 8:0 9:0 10:0 11:0 12:1 13:1 14:1 15:1 16:1 17:0 18:0 19:0 20:0 21:1 22:1 23:1 24:1 25:1 26:1 27:0 28:0 29:0 30:1 31:1 32:1 33:1 34:1 35:1 36:1 37:0 38:0 39:0 40:1 41:1 42:1 43:1 44:1 45:1 46:1 47:0 48:0 49:0 50:0 51:1 52:1 53:1 54:1 55:1 56:1 57:0 58:0 59:0 60:0 61:1 62:1 63:1 64:1 65:1 66:1 67:0 68:0 69:0 70:0 71:0 72:0 73:1 74:1 75:1 76:1 77:0 78:0 79:0 80:0 81:0 82:0 83:1 84:1 85:1 86:1 87:0 88:0 89:0 90:0 91:0 92:0 93:1 94:1 95:1 96:1 97:0 98:0 99:0 100:0 101:0 102:0 103:1 104:1 105:1 106:1 107:0 108:0 109:0 110:0 111:0 112:0 113:1 114:1 115:1 116:1 117:0 118:0 119:0 120:0 121:0 122:0 123:1 124:1 125:1 126:1 127:0 128:0 129:0 130:0 
-1 0 0 0 0 0 0 0 1:0 2:1 3:1 4:1 5:1 6:0 7:0 8:0 9:0 10:0 11:1 12:1 13:1 14:1 15:1 16:1 17:0 18:0 19:0 20:1 21:1 22:1 23:1 24:1 25:1 26:1 27:0 28:0 29:0 30:1 31:1 32:1 33:1 34:1 35:1 36:1 37:0 38:0 39:0 40:1 41:1 42:1 43:1 44:1 45:1 46:1 47:0 48:0 49:0 50:0 51:1 52:1 53:1 54:1 55:1 56:1 57:0 58:0 59:0 60:0 61:0 62:1 63:1 64:1 65:1 66:1 67:0 68:0 69:0 70:0 71:0 72:0 73:1 74:1 75:1 76:1 77:0 78:0 79:0 80:0 81:0 82:0 83:1 84:1 85:1 86:1 87:0 88:0 89:0 90:0 91:0 92:0 93:1 94:1 95:1 96:1 97:0 98:0 99:0 100:0 101:0 102:0 103:1 104:1 105:1 106:1 107:0 108:0 109:0 110:0 111:0 112:0 113:1 114:1 115:1 116:1 117:0 118:0 119:0 120:0 121:0 122:0 123:1 124:1 125:1 126:0 127:0 128:0 129:0 130:0 
-0 0 0 0.3284977164523171 0 0 0 0 1:0 2:0 3:1 4:1 5:1 6:0 7:0 8:0 9:0 10:0 11:1 12:1 13:1 14:1 15:1 16:0 17:0 18:0 19:0 20:1 21:1 22:1 23:1 24:1 25:1 26:1 27:0 28:0 29:0 30:1 31:1 32:1 33:1 34:1 35:1 36:1 37:0 38:0 39:0 40:1 41:1 42:1 43:1 44:1 45:1 46:1 47:0 48:0 49:0 50:0 51:1 52:1 53:1 54:1 55:1 56:1 57:0 58:0 59:0 60:0 61:0 62:1 63:1 64:1 65:1 66:1 67:0 68:0 69:0 70:0 71:0 72:1 73:1 74:1 75:1 76:1 77:0 78:0 79:0 80:0 81:0 82:0 83:1 84:1 85:1 86:1 87:0 88:0 89:0 90:0 91:0 92:0 93:1 94:1 95:1 96:1 97:0 98:0 99:0 100:0 101:0 102:0 103:1 104:1 105:1 106:1 107:0 108:0 109:0 110:0 111:0 112:0 113:1 114:1 115:1 116:1 117:0 118:0 119:0 120:0 121:0 122:0 123:1 124:1 125:1 126:0 127:0 128:0 129:0 130:0 
-1 0.6746686519847512 0.1629111366741401 0 0.8200839876495186 0 0.4853712250084752 0 1:0 2:0 3:0 4:1 5:1 6:0 7:0 8:0 9:0 10:0 11:0 12:1 13:1 14:1 15:1 16:1 17:0 18:0 19:0 20:0 21:1 22:1 23:1 24:1 25:1 26:1 27:0 28:0 29:0 30:1 31:1 32:1 33:1 34:1 35:1 36:1 37:0 38:0 39:0 40:1 41:1 42:1 43:1 44:1 45:1 46:1 47:0 48:0 49:0 50:1 51:1 52:1 53:1 54:1 55:1 56:1 57:0 58:0 59:0 60:0 61:1 62:1 63:1 64:1 65:1 66:1 67:0 68:0 69:0 70:0 71:0 72:0 73:1 74:1 75:1 76:1 77:0 78:0 79:0 80:0 81:0 82:0 83:1 84:1 85:1 86:1 87:0 88:0 89:0 90:0 91:0 92:0 93:1 94:1 95:1 96:1 97:0 98:0 99:0 100:0 101:0 102:0 103:1 104:1 105:1 106:1 107:0 108:0 109:0 110:0 111:0 112:0 113:1 114:1 115:1 116:1 117:0 118:0 119:0 120:0 121:0 122:0 123:0 124:1 125:1 126:1 127:0 128:0 129:0 130:0 
-0.8894413548463186 0.6280692998129153 0.449681550386721 0.4966785135340281 0.5076190185778491 1 0 0 1:0 2:0 3:0 4:1 5:0 6:0 7:0 8:0 9:0 10:0 11:0 12:1 13:1 14:1 15:1 16:0 17:0 18:0 19:0 20:0 21:1 22:1 23:1 24:1 25:1 26:1 27:0 28:0 29:0 30:0 31:1 32:1 33:1 34:1 35:1 36:1 37:0 38:0 39:0 40:1 41:1 42:1 43:1 44:1 45:1 46:1 47:0 48:0 49:0 50:0 51:0 52:0 53:1 54:1 55:1 56:1 57:0 58:0 59:0 60:0 61:0 62:0 63:1 64:1 65:1 66:1 67:0 68:0 69:0 70:0 71:0 72:0 73:0 74:1 75:1 76:1 77:0 78:0 79:0 80:0 81:0 82:0 83:0 84:1 85:1 86:1 87:0 88:0 89:0 90:0 91:0 92:0 93:0 94:1 95:1 96:1 97:0 98:0 99:0 100:0 101:0 102:0 103:0 104:1 105:1 106:1 107:0 108:0 109:0 110:0 111:0 112:0 113:0 114:1 115:1 116:1 117:0 118:0 119:0 120:0 121:0 122:0 123:0 124:1 125:1 126:0 127:0 128:0 129:0 130:0 
-0 0 0 0.3756468536837223 0 0 0 0 1:0 2:0 3:1 4:1 5:1 6:1 7:0 8:0 9:0 10:0 11:0 12:1 13:1 14:1 15:1 16:1 17:0 18:0 19:0 20:0 21:1 22:1 23:1 24:1 25:1 26:1 27:0 28:0 29:0 30:0 31:1 32:1 33:1 34:1 35:1 36:1 37:0 38:0 39:0 40:1 41:1 42:1 43:1 44:1 45:1 46:1 47:0 48:0 49:0 50:0 51:1 52:1 53:1 54:1 55:1 56:1 57:0 58:0 59:0 60:0 61:0 62:1 63:1 64:1 65:1 66:1 67:0 68:0 69:0 70:0 71:0 72:0 73:1 74:1 75:1 76:1 77:0 78:0 79:0 80:0 81:0 82:0 83:1 84:1 85:1 86:1 87:0 88:0 89:0 90:0 91:0 92:0 93:1 94:1 95:1 96:1 97:0 98:0 99:0 100:0 101:0 102:0 103:1 104:1 105:1 106:1 107:0 108:0 109:0 110:0 111:0 112:0 113:1 114:1 115:1 116:1 117:0 118:0 119:0 120:0 121:0 122:0 123:0 124:1 125:1 126:1 127:0 128:0 129:0 130:0 
-0 0 0 0 0 0.4804479092500509 0 0 1:0 2:1 3:1 4:1 5:1 6:1 7:0 8:0 9:0 10:0 11:1 12:1 13:1 14:1 15:1 16:1 17:0 18:0 19:0 20:1 21:1 22:1 23:1 24:1 25:1 26:1 27:0 28:0 29:0 30:1 31:1 32:1 33:1 34:1 35:1 36:1 37:0 38:0 39:0 40:0 41:0 42:0 43:1 44:1 45:1 46:1 47:0 48:0 49:0 50:0 51:0 52:0 53:1 54:1 55:1 56:1 57:0 58:0 59:0 60:0 61:0 62:0 63:0 64:1 65:1 66:1 67:0 68:0 69:0 70:0 71:0 72:0 73:0 74:1 75:1 76:1 77:0 78:0 79:0 80:0 81:0 82:0 83:0 84:1 85:1 86:1 87:0 88:0 89:0 90:0 91:0 92:0 93:0 94:1 95:1 96:1 97:0 98:0 99:0 100:0 101:0 102:0 103:0 104:1 105:1 106:1 107:0 108:0 109:0 110:0 111:0 112:0 113:0 114:1 115:1 116:1 117:0 118:0 119:0 120:0 121:0 122:0 123:0 124:1 125:1 126:1 127:0 128:0 129:0 130:0 
-0 0 0 0.7432885982879242 0 0 0 0 1:0 2:1 3:1 4:1 5:1 6:0 7:0 8:0 9:0 10:0 11:1 12:1 13:1 14:1 15:1 16:1 17:0 18:0 19:0 20:0 21:1 22:1 23:1 24:1 25:1 26:1 27:0 28:0 29:0 30:1 31:1 32:1 33:1 34:1 35:1 36:1 37:0 38:0 39:0 40:0 41:1 42:0 43:1 44:1 45:1 46:1 47:0 48:0 49:0 50:0 51:0 52:0 53:1 54:1 55:1 56:1 57:0 58:0 59:0 60:0 61:0 62:0 63:1 64:1 65:1 66:1 67:0 68:0 69:0 70:0 71:0 72:0 73:1 74:1 75:1 76:1 77:0 78:0 79:0 80:0 81:0 82:0 83:0 84:1 85:1 86:1 87:0 88:0 89:0 90:0 91:0 92:0 93:0 94:1 95:1 96:1 97:0 98:0 99:0 100:0 101:0 102:0 103:0 104:1 105:1 106:1 107:0 108:0 109:0 110:0 111:0 112:0 113:0 114:1 115:1 116:1 117:0 118:0 119:0 120:0 121:0 122:0 123:0 124:1 125:1 126:0 127:0 128:0 129:0 130:0 
-0 0 0 0 0 0.1759276102775729 0 0 1:0 2:0 3:1 4:1 5:1 6:0 7:0 8:0 9:0 10:0 11:1 12:1 13:1 14:1 15:1 16:1 17:0 18:0 19:0 20:0 21:1 22:1 23:1 24:1 25:1 26:1 27:0 28:0 29:0 30:1 31:1 32:1 33:1 34:1 35:1 36:1 37:0 38:0 39:0 40:1 41:1 42:1 43:1 44:1 45:1 46:1 47:0 48:0 49:0 50:0 51:1 52:1 53:1 54:1 55:1 56:1 57:0 58:0 59:0 60:0 61:0 62:1 63:1 64:1 65:1 66:1 67:0 68:0 69:0 70:0 71:0 72:0 73:1 74:1 75:1 76:1 77:0 78:0 79:0 80:0 81:0 82:0 83:1 84:1 85:1 86:1 87:0 88:0 89:0 90:0 91:0 92:0 93:1 94:1 95:1 96:1 97:0 98:0 99:0 100:0 101:0 102:0 103:1 104:1 105:1 106:1 107:0 108:0 109:0 110:0 111:0 112:0 113:1 114:1 115:1 116:1 117:0 118:0 119:0 120:0 121:0 122:0 123:1 124:1 125:1 126:0 127:0 128:0 129:0 130:0 
-0 0 0 0 0 0 0.5058000622390407 0 1:0 2:1 3:1 4:1 5:0 6:0 7:0 8:0 9:0 10:0 11:1 12:1 13:1 14:1 15:0 16:0 17:0 18:0 19:0 20:1 21:1 22:1 23:1 24:1 25:0 26:0 27:0 28:0 29:0 30:1 31:0 32:0 33:1 34:1 35:0 36:0 37:0 38:0 39:0 40:0 41:0 42:0 43:1 44:1 45:0 46:0 47:0 48:0 49:0 50:0 51:0 52:0 53:1 54:1 55:0 56:0 57:0 58:0 59:0 60:0 61:0 62:0 63:1 64:1 65:1 66:0 67:0 68:0 69:0 70:0 71:0 72:0 73:1 74:1 75:1 76:0 77:0 78:0 79:0 80:0 81:0 82:0 83:1 84:1 85:0 86:0 87:0 88:0 89:0 90:0 91:0 92:0 93:1 94:1 95:1 96:0 97:0 98:0 99:0 100:0 101:0 102:0 103:0 104:1 105:1 106:1 107:0 108:0 109:0 110:0 111:0 112:0 113:0 114:1 115:1 116:0 117:0 118:0 119:0 120:0 121:0 122:0 123:0 124:1 125:0 126:0 127:0 128:0 129:0 130:0 
-0.7682919272871102 0.8997225365685755 0.3092683265258066 0 0.4180605200666189 0 0 0 1:0 2:0 3:1 4:0 5:0 6:0 7:0 8:0 9:0 10:0 11:1 12:1 13:1 14:1 15:0 16:0 17:0 18:0 19:0 20:1 21:1 22:1 23:1 24:1 25:0 26:0 27:0 28:0 29:0 30:1 31:1 32:1 33:1 34:1 35:0 36:0 37:0 38:0 39:0 40:1 41:1 42:1 43:1 44:1 45:0 46:0 47:0 48:0 49:0 50:1 51:1 52:1 53:1 54:1 55:0 56:0 57:0 58:0 59:0 60:0 61:0 62:1 63:1 64:1 65:0 66:0 67:0 68:0 69:0 70:0 71:0 72:1 73:1 74:1 75:0 76:0 77:0 78:0 79:0 80:0 81:0 82:1 83:1 84:1 85:0 86:0 87:0 88:0 89:0 90:0 91:0 92:1 93:1 94:1 95:0 96:0 97:0 98:0 99:0 100:0 101:0 102:1 103:1 104:1 105:0 106:0 107:0 108:0 109:0 110:0 111:0 112:1 113:1 114:1 115:0 116:0 117:0 118:0 119:0 120:0 121:0 122:0 123:1 124:0 125:0 126:0 127:0 128:0 129:0 130:0 
-0.7531915950580006 0 0 0 0 0 0 0 1:0 2:0 3:1 4:1 5:1 6:0 7:0 8:0 9:0 10:0 11:1 12:1 13:1 14:1 15:1 16:1 17:0 18:0 19:0 20:0 21:1 22:1 23:1 24:1 25:1 26:1 27:0 28:0 29:0 30:1 31:1 32:1 33:1 34:1 35:1 36:1 37:0 38:0 39:0 40:1 41:1 42:1 43:1 44:1 45:1 46:1 47:0 48:0 49:0 50:1 51:1 52:1 53:1 54:1 55:1 56:1 57:0 58:0 59:0 60:0 61:0 62:1 63:1 64:1 65:1 66:1 67:0 68:0 69:0 70:0 71:0 72:0 73:1 74:1 75:1 76:1 77:0 78:0 79:0 80:0 81:0 82:0 83:1 84:1 85:1 86:1 87:0 88:0 89:0 90:0 91:0 92:0 93:1 94:1 95:1 96:1 97:0 98:0 99:0 100:0 101:0 102:0 103:1 104:1 105:1 106:1 107:0 108:0 109:0 110:0 111:0 112:0 113:1 114:1 115:1 116:1 117:0 118:0 119:0 120:0 121:0 122:0 123:0 124:1 125:1 126:0 127:0 128:0 129:0 130:0 
-1 0.2651993389178908 1 1 0 0 0 0 1:0 2:0 3:1 4:1 5:1 6:0 7:0 8:0 9:0 10:0 11:1 12:1 13:1 14:1 15:1 16:0 17:0 18:0 19:0 20:1 21:1 22:1 23:1 24:1 25:1 26:1 27:0 28:0 29:0 30:1 31:1 32:1 33:1 34:1 35:1 36:1 37:0 38:0 39:0 40:1 41:1 42:1 43:1 44:1 45:1 46:1 47:0 48:0 49:0 50:1 51:1 52:1 53:1 54:1 55:1 56:1 57:0 58:0 59:0 60:0 61:1 62:1 63:1 64:1 65:1 66:1 67:0 68:0 69:0 70:0 71:0 72:1 73:1 74:1 75:1 76:1 77:0 78:0 79:0 80:0 81:0 82:0 83:1 84:1 85:1 86:1 87:0 88:0 89:0 90:0 91:0 92:0 93:1 94:1 95:1 96:1 97:0 98:0 99:0 100:0 101:0 102:1 103:1 104:1 105:1 106:1 107:0 108:0 109:0 110:0 111:0 112:0 113:1 114:1 115:1 116:0 117:0 118:0 119:0 120:0 121:0 122:0 123:1 124:1 125:1 126:0 127:0 128:0 129:0 130:0 
-0 0 0 0 0 0 0.7437429585993532 0 1:0 2:0 3:0 4:1 5:1 6:0 7:0 8:0 9:0 10:0 11:0 12:1 13:1 14:1 15:1 16:1 17:0 18:0 19:0 20:0 21:1 22:1 23:1 24:1 25:1 26:1 27:0 28:0 29:0 30:0 31:1 32:1 33:1 34:1 35:1 36:1 37:0 38:0 39:0 40:1 41:1 42:1 43:1 44:1 45:1 46:1 47:0 48:0 49:0 50:0 51:1 52:1 53:1 54:1 55:1 56:1 57:0 58:0 59:0 60:0 61:0 62:0 63:1 64:1 65:1 66:1 67:0 68:0 69:0 70:0 71:0 72:0 73:1 74:1 75:1 76:1 77:0 78:0 79:0 80:0 81:0 82:0 83:1 84:1 85:1 86:1 87:0 88:0 89:0 90:0 91:0 92:0 93:1 94:1 95:1 96:1 97:0 98:0 99:0 100:0 101:0 102:0 103:1 104:1 105:1 106:1 107:0 108:0 109:0 110:0 111:0 112:0 113:0 114:1 115:1 116:1 117:0 118:0 119:0 120:0 121:0 122:0 123:0 124:1 125:1 126:1 127:0 128:0 129:0 130:0 
-0 0 0.1221605808607134 0 0 0 0 0 1:0 2:0 3:0 4:1 5:1 6:0 7:0 8:0 9:0 10:0 11:0 12:1 13:1 14:1 15:1 16:1 17:0 18:0 19:0 20:0 21:1 22:1 23:1 24:1 25:1 26:1 27:0 28:0 29:0 30:1 31:1 32:1 33:1 34:1 35:1 36:1 37:0 38:0 39:0 40:0 41:1 42:1 43:1 44:1 45:1 46:1 47:0 48:0 49:0 50:0 51:1 52:1 53:1 54:1 55:1 56:1 57:0 58:0 59:0 60:0 61:0 62:0 63:1 64:1 65:1 66:1 67:0 68:0 69:0 70:0 71:0 72:0 73:1 74:1 75:1 76:1 77:0 78:0 79:0 80:0 81:0 82:0 83:1 84:1 85:1 86:1 87:0 88:0 89:0 90:0 91:0 92:0 93:0 94:1 95:1 96:1 97:0 98:0 99:0 100:0 101:0 102:0 103:0 104:1 105:1 106:1 107:0 108:0 109:0 110:0 111:0 112:0 113:0 114:1 115:1 116:1 117:0 118:0 119:0 120:0 121:0 122:0 123:0 124:1 125:1 126:0 127:0 128:0 129:0 130:0 
